[["AI01",{"levels":[{"inputs":[0,0,0.14265566419058584,0.24138762140244452,0.10457683002856943,0,0,0.20946614172115396,0.5228256602616261,0.5771382582013529,0.5000878454034209,0.09080262201335443,0],"outputs":[1,1,1,1,0,1],"biases":[-0.2226314419162467,-0.5400333360370192,-0.767677092225747,-0.029621797467569558,0.8395994284957845,-0.5408145555205601],"weights":[[-0.598669843823486,0.34402101067049434,0.35047290942096215,0.22509364974508772,0.12569847536891243,0.30711042682860795],[0.3184046190995178,-0.8498634875659199,-0.06567814183091061,-0.6080524561462595,-0.39704013089244206,0.022352539854533265],[-0.702141055193282,0.7266374215516278,0.6481071864710364,-0.5403775806954537,-0.4528754849833283,0.5437272155844429],[0.2616609450323077,-0.03175360261431067,-0.34228190014578275,-0.05631938067164588,0.34370535514161854,0.7004444913290075],[-0.5230196194904437,-0.7248862300282465,-0.31597653017537275,-0.6779576837612094,-0.044640291871549685,-0.01768843986599894],[0.19823531075473738,0.37764072937684173,-0.7316890851117881,-0.7236241562987552,-0.0925159108486632,0.7527045613994727],[-0.4680756545191635,0.45859610765130493,-0.0735313082069255,0.12992558539975096,-0.42070689921103166,0.015607844220330944],[-0.27414149368656726,-0.0400385356327847,0.34400165008980504,0.6604160709117043,-0.2891816945275827,0.08264104189311902],[-0.5405693309664701,-0.6902460801585473,-0.43539251173627713,0.32026122417465286,-0.11431782600666099,0.41528797257789374],[0.1883740453675859,0.14399064431105213,-0.6356211879921457,-0.07211816634513535,0.8068635873715865,0.5487043031665795],[0.3423103953323529,0.533943365406478,0.5584866583005071,-0.37503892907796815,0.7076215644404948,0.7260723693263783],[-0.2669039029186254,-0.7800869427517876,-0.4645530301571054,0.7036374506820015,-0.09478105877296,0.2906904014683447],[0.7776094392945263,-0.5896129549245089,0.2970851263550423,-0.05565308845583444,0.11069399507333197,0.40521789433463107]]},{"inputs":[1,1,1,1,0,1],"outputs":[1,1,0,0],"biases":[-0.12831826885608077,0.7589614545442143,0.6843096793953652,-0.008938360614840019],"weights":[[0.517444418645873,-0.12870553881254335,0.6015520197756352,0.6342425581874245],[-0.19721332335394015,0.10676852338201541,0.8282221012498567,0.36510267329741264],[0.5217890460375249,0.3584746578620143,0.6046438264767899,-0.32030798348274003],[0.09227166175868189,0.7065836809219865,-0.6869517851879813,-0.436607534425936],[0.3117020544230494,0.6914510788714182,0.027838778386985168,-0.6767118372172227],[-0.03252638526991965,0.09892295668860301,-0.7064515577492932,-0.7918391521357984]]}]}],["AI02",{"levels":[{"inputs":[0.30427925912665266,0.5993658803575871,0.7012105833952899,0.697047890610307,0.578131017055677,0,0,0,0,0,0,0,0.30427925912665166],"outputs":[1,1,1,1,1,1],"biases":[0.2339370191538479,-0.3777449051299948,0.42345429096009113,-0.8298944954721108,-0.21351151972268534,0.7605604084367368],"weights":[[0.9564040276442536,0.19591911563177922,-0.02722808720350489,0.07439313464394948,0.21648107348165402,0.17609179460197577],[0.8823633173553072,0.7250198672633488,0.46109070556541853,-0.4552750266674108,0.4295311647223157,0.8522949501460371],[0.5039319054998588,0.9506351539990923,-0.39558209064417094,-0.63798508546776,0.39569175863824047,0.1441644481301414],[0.2605048432518129,-0.3442262701146399,0.3152430904511645,0.7765918009050625,0.2715790066777535,0.8276411670531201],[0.5480069043917157,0.22057120868170355,0.9245130236118659,-0.7657922584642471,0.3534320058015923,-0.4638419259306694],[0.6876485809670476,-0.03613784165795941,0.9616864549600543,0.21074106799845982,0.6044410883895499,0.23884482049332822],[0.9021576947631371,0.9981585910138508,0.7044784637039592,0.6382033716628204,-0.0029119362718956765,-0.10085729041205616],[0.8610229217536984,-0.8795267173227055,-0.3836148532734418,0.703588868960844,0.04280807223563032,0.8079654501008515],[-0.05337045040942723,0.9097577130414529,0.4810235954780646,0.19489045541129402,-0.18402402375815852,-0.3484896087065277],[0.07257001321959144,0.38174925273071025,0.10066263886367066,-0.4266654352079029,0.9364831916729086,-0.7456928210419163],[-0.41874298713344515,-0.1735334367181256,0.39853014114512764,0.8993521126365667,0.4410509992541547,0.20571108277811723],[-0.3188008171800969,-0.30357776186044205,0.682643854485113,0.7223890593303843,0.7070807978397373,0.2396472919295074],[-0.3883490465526238,-0.412430856539566,-0.8028089736965329,0.9172064433217493,0.488670187850456,0.7097343366587703]]},{"inputs":[1,1,1,1,1,1],"outputs":[1,0,1,1],"biases":[-0.714270081493158,0.11639547953729501,0.9043203235644608,0.5765780703358341],"weights":[[0.8772076272642906,-0.0896328933713777,0.9827636415350107,-0.16173890046142425],[0.1713321240728818,0.13239489338676558,-0.5105623642684805,0.8204429813909684],[0.7175560113725088,-0.8837093745891638,0.9109859779751832,0.44339710727555426],[0.5404728739090077,0.44735235411603247,0.40066094616493464,-0.8219153613265036],[0.5833343110616869,-0.1626744947393841,0.010854751701702359,0.2588337170301531],[-0.6568014512914604,-0.9663339718100739,0.3415774145182384,0.3512096433105931]]}]}],["AI02",{"levels":[{"inputs":[0,0.0406577861627595,0.44077234811234234,0.513343781281397,0.4353167744781816,0.05170834031196836,0,0,0,0,0,0,0],"outputs":[1,1,1,1,1,0],"biases":[0.2339370191538479,-0.3777449051299948,0.42345429096009113,-0.8298944954721108,-0.21351151972268534,0.7605604084367368],"weights":[[0.9564040276442536,0.19591911563177922,-0.02722808720350489,0.07439313464394948,0.21648107348165402,0.17609179460197577],[0.8823633173553072,0.7250198672633488,0.46109070556541853,-0.4552750266674108,0.4295311647223157,0.8522949501460371],[0.5039319054998588,0.9506351539990923,-0.39558209064417094,-0.63798508546776,0.39569175863824047,0.1441644481301414],[0.2605048432518129,-0.3442262701146399,0.3152430904511645,0.7765918009050625,0.2715790066777535,0.8276411670531201],[0.5480069043917157,0.22057120868170355,0.9245130236118659,-0.7657922584642471,0.3534320058015923,-0.4638419259306694],[0.6876485809670476,-0.03613784165795941,0.9616864549600543,0.21074106799845982,0.6044410883895499,0.23884482049332822],[0.9021576947631371,0.9981585910138508,0.7044784637039592,0.6382033716628204,-0.0029119362718956765,-0.10085729041205616],[0.8610229217536984,-0.8795267173227055,-0.3836148532734418,0.703588868960844,0.04280807223563032,0.8079654501008515],[-0.05337045040942723,0.9097577130414529,0.4810235954780646,0.19489045541129402,-0.18402402375815852,-0.3484896087065277],[0.07257001321959144,0.38174925273071025,0.10066263886367066,-0.4266654352079029,0.9364831916729086,-0.7456928210419163],[-0.41874298713344515,-0.1735334367181256,0.39853014114512764,0.8993521126365667,0.4410509992541547,0.20571108277811723],[-0.3188008171800969,-0.30357776186044205,0.682643854485113,0.7223890593303843,0.7070807978397373,0.2396472919295074],[-0.3883490465526238,-0.412430856539566,-0.8028089736965329,0.9172064433217493,0.488670187850456,0.7097343366587703]]},{"inputs":[1,1,1,1,1,0],"outputs":[1,0,1,0],"biases":[-0.714270081493158,0.11639547953729501,0.9043203235644608,0.5765780703358341],"weights":[[0.8772076272642906,-0.0896328933713777,0.9827636415350107,-0.16173890046142425],[0.1713321240728818,0.13239489338676558,-0.5105623642684805,0.8204429813909684],[0.7175560113725088,-0.8837093745891638,0.9109859779751832,0.44339710727555426],[0.5404728739090077,0.44735235411603247,0.40066094616493464,-0.8219153613265036],[0.5833343110616869,-0.1626744947393841,0.010854751701702359,0.2588337170301531],[-0.6568014512914604,-0.9663339718100739,0.3415774145182384,0.3512096433105931]]}]}],["AI03",{"levels":[{"inputs":[0.24453340023947723,0.5684792369428544,0.655801244705177,0.6316403789235465,0.4846309500438092,0.16301685573029545,0,0,0,0,0,0,0.24453340023947712],"outputs":[0,0,1,0,1,0],"biases":[0.6222730140982748,0.23663434877414602,-0.09033747994058405,0.7032843084328975,-0.4909570373022669,-0.8331953152483162],"weights":[[0.28130153505200317,-0.5178775081603031,0.3129413591003982,-0.27798490801453735,0.11615955338722195,-0.17161256751436715],[-0.8422038695859717,0.11104486887314247,-0.4624586414631069,-0.41053950642702564,0.36811295211012673,-0.8124527964506054],[-0.3642759562903142,-0.6034096520245318,0.8869604040947627,-0.689745689790989,-0.9893639465538469,-0.27672994649441485],[0.43309996524258265,-0.08120021375174558,0.46313225636324473,0.21522649127376958,-0.05667940484348355,-0.17228614282512167],[0.7211055280680867,0.1833060111725917,0.9723178663387135,0.03346727722568632,0.05520224494352188,0.3898789163211913],[-0.4603632801241253,0.6559651261324806,-0.19859959144207506,0.4998250106327342,-0.9754495971934767,-0.8853154904660605],[-0.1680621132637321,0.22109960822041552,-0.13604459851056294,-0.9560134490173717,-0.38404341984708834,0.9942697772746296],[-0.16797545932038283,-0.25794272520559813,0.7125415650113163,-0.586886717764799,-0.021250111444935715,-0.12731643945351223],[0.3257743672048359,0.9107790464292185,-0.5339523791269949,-0.8651280715711422,0.2263938692572851,0.1473200613478136],[-0.04973853424885233,0.6616273520377409,0.3562614922837235,-0.9185172437866509,0.19855290522357016,0.397289069246646],[-0.2095524532595716,0.9486251311458798,0.978366227335671,-0.5350736977229511,-0.8394404782372282,0.2655622104622184],[-0.1914291809675519,-0.277824019129433,0.3542372196416772,0.2237292356029239,-0.2974232657775535,0.32398305480098166],[-0.4497378552594711,-0.11671170769348205,-0.8210854218055244,-0.10582826508765741,0.5791935163493545,-0.5885380385527919]]},{"inputs":[0,0,1,0,1,0],"outputs":[1,0,0,0],"biases":[-0.9632991667958404,-0.3156300997492303,-0.9982454003087886,0.9036025144487909],"weights":[[0.11315056126510514,-0.8385857198915119,0.30459147335968906,-0.00009994426722004235],[-0.4986232284679448,0.30595745981609035,0.9095876397684255,-0.9072903761661704],[0.30908306699987476,-0.9074183333868682,-0.44320179983060326,0.5174919503100148],[-0.2204008338098684,0.4939306069191507,0.5148000987990087,0.4691309359100564],[-0.3908874540362177,0.15682825996770688,-0.6570675503433336,-0.011838494292371937],[0.6613584768434988,-0.2994732973676233,-0.39882093482231173,-0.5324847264629895]]}]}],["AI02",{"levels":[{"inputs":[0,0,0.01445891818041889,0.4391678257953169,0,0,0,0,0,0,0,0,0],"outputs":[0,1,0,1,1,0],"biases":[0.3054236196117645,-0.34107125873722743,0.3175513243354222,-0.8268229229502612,-0.24507131449370662,0.7136219161255621],"weights":[[0.9392475757354148,0.12911312541002207,0.05031808838027252,0.050683731236330715,0.19901473727121358,0.22980284390811598],[0.8259961101341757,0.5732943767217324,0.34715819177198015,-0.3862787988277692,0.4530603152422846,0.7733994204773665],[0.541657999552475,0.8095433164097102,-0.3193674516627233,-0.5152641400333426,0.41316817779802,0.13558929474123338],[0.1425716834237012,-0.259095723394406,0.36090749155601554,0.6872688817314194,0.3200846356280356,0.8417433341194862],[0.5149608722667218,0.2733126419579222,0.9161978950186404,-0.6380929575805068,0.2977072904205313,-0.38945618579620284],[0.5889387695090721,-0.02047279803921631,0.8270955967226791,0.2778366597460991,0.5825827868787878,0.2705771350690005],[0.8743651241161814,0.9773885743126711,0.6860820878012917,0.47478744372587056,0.017736683626657215,-0.06027851078508379],[0.7252809871066147,-0.760873809010313,-0.3421574217835306,0.5813698903356572,-0.050031893059839794,0.6956712929217015],[-0.08435187362105698,0.8257102559082862,0.47650547379084557,0.2664071832858354,-0.1508376949486105,-0.21573311398900397],[0.11119840389875574,0.41721118354220466,0.014953657705513157,-0.3347732157736087,0.7943740523597607,-0.7579253556359122],[-0.29602984811446087,-0.10330583300554745,0.31344305210289447,0.7196763993381998,0.33655746479436305,0.20129311144347609],[-0.3718436759953851,-0.36246510144024513,0.6590085339520799,0.721271188906535,0.5647499714762368,0.13630755547553608],[-0.44797702753758656,-0.3941588890307223,-0.65158472732004,0.9142313760460159,0.3723935585855062,0.7031227146365782]]},{"inputs":[0,1,0,1,1,0],"outputs":[1,1,0,0],"biases":[-0.5877459406716719,0.10560705219226199,0.7633706957209045,0.5366600160711383],"weights":[[0.7063904255423715,-0.037514143586270206,0.9401610291624516,-0.15407028277898432],[0.2257246144606381,0.2079111873974096,-0.5307363949442714,0.723263531536805],[0.5766487963255256,-0.7291530180216956,0.776218984507202,0.4251283547332058],[0.5719660246100146,0.45781801833366115,0.33390390260767616,-0.7183492896210179],[0.5928241484613596,-0.05372879087206939,-0.06865436099901455,0.16031449932133976],[-0.6142430838048737,-0.8751727048064618,0.2868320498758546,0.40745484873616766]]}]}],["AI04",{"levels":[{"inputs":[0,0,0.12925833719004076,0.273113239187287,0.1898820722445549,0,0,0,0,0,0,0,0],"outputs":[0,1,1,1,1,0],"biases":[0.1949951992670246,-0.31492265395624836,0.19075692948572845,-0.7342210350081951,-0.16651454068165272,0.7384174350030742],"weights":[[0.7719032737118502,0.15617710829236764,-0.041738945461230983,0.10990572536380286,0.17334376585686634,0.14209862751376462],[0.7487477284483298,0.47660090868727567,0.3218357374618383,-0.4058722363181792,0.3798190421719035,0.7776822583107896],[0.54341393184163,0.7993102762791852,-0.2810202845862608,-0.47022776240952596,0.37150463980386506,0.21564046123801617],[0.13142790517926375,-0.24270167422048122,0.32400780146609265,0.6587608890799431,0.35473104727513627,0.7196066394001902],[0.36647182985786236,0.2127780405889973,0.9165040755207224,-0.5475852152716215,0.3325308187368941,-0.4079401603661723],[0.5818950720061916,0.04927301136174163,0.8082578920804008,0.32668069878038586,0.4844460086016499,0.31208139211084673],[0.8526153694865716,0.9006353106252353,0.6685759584379444,0.5092505352466561,-0.04150630205449155,-0.11843861674877179],[0.6878381782565872,-0.6537457321922957,-0.40543306237562204,0.5943544151005722,0.01154802658776062,0.5582710315475323],[-0.025114237843067856,0.6764743381158645,0.47064325101507043,0.24664007474428867,-0.12167934511056223,-0.11502302571102183],[0.13136234437267175,0.4617298951398253,0.06948481045406457,-0.33505836137242745,0.7962397782789751,-0.7364354284193743],[-0.1829547968637177,-0.17366687860209443,0.38127508340197935,0.6903568439426286,0.2574774489655026,0.20155749163600895],[-0.29130802987309473,-0.3619471055708607,0.5236224634300398,0.685145391258442,0.49005666878079873,0.03252946653597248],[-0.4440080967138909,-0.3152969809922137,-0.49502762682709633,0.8672059807386645,0.24293991098586984,0.6486259669160361]]},{"inputs":[0,1,1,1,1,0],"outputs":[1,0,0,1],"biases":[-0.5753465533304145,0.0038712881011527117,0.5957890303587858,0.5490210795498704],"weights":[[0.6268034542947742,-0.025537403494224887,0.9284063000268542,-0.1214188687715364],[0.26329828695579277,0.26235621580040175,-0.45912423915147926,0.7226554342076834],[0.5891699018882265,-0.5869914514189559,0.6827097402048645,0.39824920133198993],[0.5477090072148627,0.3908898082900575,0.25139896466732414,-0.576582949259327],[0.5285825766018426,-0.11022270622602501,0.03497658609116369,0.17646322477369553],[-0.5969680530099829,-0.8138834643401207,0.3133441019293445,0.4203250855893226]]}]}],["AI04",{"levels":[{"inputs":[0,0,0.12925833719004076,0.273113239187287,0.1898820722445549,0,0,0,0,0,0,0,0],"outputs":[0,1,1,1,1,0],"biases":[0.1949951992670246,-0.31492265395624836,0.19075692948572845,-0.7342210350081951,-0.16651454068165272,0.7384174350030742],"weights":[[0.7719032737118502,0.15617710829236764,-0.041738945461230983,0.10990572536380286,0.17334376585686634,0.14209862751376462],[0.7487477284483298,0.47660090868727567,0.3218357374618383,-0.4058722363181792,0.3798190421719035,0.7776822583107896],[0.54341393184163,0.7993102762791852,-0.2810202845862608,-0.47022776240952596,0.37150463980386506,0.21564046123801617],[0.13142790517926375,-0.24270167422048122,0.32400780146609265,0.6587608890799431,0.35473104727513627,0.7196066394001902],[0.36647182985786236,0.2127780405889973,0.9165040755207224,-0.5475852152716215,0.3325308187368941,-0.4079401603661723],[0.5818950720061916,0.04927301136174163,0.8082578920804008,0.32668069878038586,0.4844460086016499,0.31208139211084673],[0.8526153694865716,0.9006353106252353,0.6685759584379444,0.5092505352466561,-0.04150630205449155,-0.11843861674877179],[0.6878381782565872,-0.6537457321922957,-0.40543306237562204,0.5943544151005722,0.01154802658776062,0.5582710315475323],[-0.025114237843067856,0.6764743381158645,0.47064325101507043,0.24664007474428867,-0.12167934511056223,-0.11502302571102183],[0.13136234437267175,0.4617298951398253,0.06948481045406457,-0.33505836137242745,0.7962397782789751,-0.7364354284193743],[-0.1829547968637177,-0.17366687860209443,0.38127508340197935,0.6903568439426286,0.2574774489655026,0.20155749163600895],[-0.29130802987309473,-0.3619471055708607,0.5236224634300398,0.685145391258442,0.49005666878079873,0.03252946653597248],[-0.4440080967138909,-0.3152969809922137,-0.49502762682709633,0.8672059807386645,0.24293991098586984,0.6486259669160361]]},{"inputs":[0,1,1,1,1,0],"outputs":[1,0,0,1],"biases":[-0.5753465533304145,0.0038712881011527117,0.5957890303587858,0.5490210795498704],"weights":[[0.6268034542947742,-0.025537403494224887,0.9284063000268542,-0.1214188687715364],[0.26329828695579277,0.26235621580040175,-0.45912423915147926,0.7226554342076834],[0.5891699018882265,-0.5869914514189559,0.6827097402048645,0.39824920133198993],[0.5477090072148627,0.3908898082900575,0.25139896466732414,-0.576582949259327],[0.5285825766018426,-0.11022270622602501,0.03497658609116369,0.17646322477369553],[-0.5969680530099829,-0.8138834643401207,0.3133441019293445,0.4203250855893226]]}]}],["AI05",{"levels":[{"inputs":[0.5867505886917591,0.31840835817562185,0,0,0,0,0,0,0,0.20444758886187897,0.5649349393999687,0.6329119878474432,0.5867505886917583],"outputs":[0,1,1,1,1,1],"biases":[0.1911626614272704,-0.35607273387698746,0.25096872552490224,-0.5684937674338395,-0.16425182678699507,0.6259170209075654],"weights":[[0.6557537394381951,0.10028065992109725,-0.118170746077644,0.033378903468068294,0.15716144476916183,0.2020295864866417],[0.6942489887106063,0.4720634897126796,0.2755956065924518,-0.4227220526646972,0.3833786823746147,0.7703362027541993],[0.5062793737558887,0.7714330949321042,-0.2720543940947684,-0.43365454245323654,0.3365803042322411,0.2075531297016953],[0.10147287301476236,-0.15109732749376437,0.2482057550782808,0.6807009534660315,0.3059432862748263,0.6036167121661946],[0.40552552091256205,0.20326998801899623,0.7706804447940927,-0.5248093090815222,0.3718558020774022,-0.42135941324959225],[0.4751369025177185,0.04743876145925038,0.7565492198934413,0.3546117394694632,0.39188644099140835,0.32372012898032054],[0.679649603083039,0.7906774150793634,0.6880845756811621,0.5431462623075616,0.03243468804395628,-0.1480781454865296],[0.563632833210991,-0.5386206926747233,-0.3194406128108619,0.46652031148762324,0.05811072806672577,0.561754826442777],[-0.07955061141896563,0.6422632107064565,0.3883478079337206,0.2606875266136209,-0.035937839409366304,-0.02479763715261324],[0.1631557696214227,0.4203037445941775,0.09931171728005148,-0.20232479076517682,0.7654708412877671,-0.7435654215921401],[-0.19679859605280886,-0.05757335339383887,0.34636429884375153,0.59355071537559,0.25929121322891674,0.25917319423871116],[-0.18807359449651284,-0.23282742353984606,0.5008253023700261,0.7012761651101863,0.52691002981841,0.023003690397703426],[-0.3712145133354664,-0.3485908151219765,-0.3671613201826581,0.7769135724720941,0.1451362445107533,0.5410538307492051]]},{"inputs":[0,1,1,1,1,1],"outputs":[1,0,1,1],"biases":[-0.5996295368738316,-0.013754905432858542,0.6341191848328945,0.5709932387984447],"weights":[[0.5133525907017624,-0.028919555140712847,0.8756044214954197,-0.14075403713428375],[0.2727091982250104,0.2175126814623922,-0.35138084061373176,0.5639416436450723],[0.6236331999184588,-0.5797429915975612,0.5347596543858496,0.2791253377638621],[0.5609160318364236,0.31472792137370076,0.2606766538119896,-0.599562707945382],[0.49824548470824875,-0.11437363457901643,-0.00948243979760971,0.11720869813634369],[-0.6073376960578251,-0.8206906948027463,0.21277536955537843,0.28578049713490616]]}]}],["AI05",{"levels":[{"inputs":[0,0,0.20637878637185014,0.3207809712742794,0.22481539038744291,0,0,0,0,0.060325823710676296,0,0,0],"outputs":[1,1,1,1,1,0],"biases":[0.1333327583835806,-0.29599469504214515,0.17174117766300462,-0.5598949250897447,-0.15770031930546505,0.5845653544760103],"weights":[[0.4912704158203561,0.01191510355086757,-0.15824311120782802,0.11136403609634547,0.17809551644488525,0.1272866490362366],[0.6998691856745265,0.5056910821867705,0.15235762137211054,-0.29054467910318726,0.4170646628304034,0.7535343130288884],[0.44852597302370695,0.6719220182551635,-0.17534431692193825,-0.34086458251614693,0.3456116882305051,0.1754676287211659],[0.14448613427881613,-0.08312379506899992,0.18970107668356614,0.7082870009895904,0.30581861452957465,0.5816175421773975],[0.37245343812439546,0.1441177029223703,0.6945026396017753,-0.4311589842181237,0.2778412226135349,-0.3466553947056124],[0.49699913909291893,0.06177382928814904,0.6122952742892713,0.24103709719107985,0.3907962875927428,0.35961935924873395],[0.6396745969460012,0.6775724919172101,0.6967786329575145,0.43524669201130955,0.030560227066915635,-0.23279896006548448],[0.43411122938538804,-0.44107183812232004,-0.3188031101570839,0.41089562552327225,0.037629433597681755,0.40686780772947706],[-0.1213766063189792,0.5201402386828308,0.30461509412860044,0.2499295830596277,-0.10919364042532667,0.025966614357634178],[0.18713264828758125,0.3134195859381551,0.13685479013084534,-0.2465563386325525,0.6994810775219533,-0.689498854188581],[-0.14922439969979695,-0.11027933068398225,0.26334379451719886,0.6104783259795256,0.24257489951825323,0.15216815315015922],[-0.15266467191831085,-0.19311625598129215,0.49058103130886027,0.6158587960022739,0.4879225235070112,0.043951239858386795],[-0.30577175633519327,-0.40533012036941396,-0.2934029755002502,0.7804628038684064,0.06624021941736519,0.5228135972761394]]},{"inputs":[1,1,1,1,1,0],"outputs":[1,0,1,0],"biases":[-0.4696268495148211,0.0018966103724701693,0.6096377057602047,0.5586382540224363],"weights":[[0.4305560539502359,-0.005797032999981865,0.7350368045478813,-0.18306561513293182],[0.24548025310813085,0.24171840763489033,-0.3201316912301553,0.43975007856508447],[0.6593037727322708,-0.5445507488565259,0.5772424796421749,0.3493793507377946],[0.5772517934408167,0.22647717720727056,0.2529512804245215,-0.5182106768143342],[0.4681262933728165,-0.08321708512430137,-0.07584433443965179,0.20528801709979264],[-0.5679622329017177,-0.6493794671277318,0.14298968540118223,0.2064806721238231]]}]}],["AI05",{"levels":[{"inputs":[0,0,0.13806021704016969,0.2588778021426571,0.150303801060495,0,0,0,0,0,0,0,0],"outputs":[1,1,0,1,1,0],"biases":[0.1758453265876979,-0.24792143769475336,0.12518127960831216,-0.5538556852551111,-0.14046910077284552,0.5749036726909461],"weights":[[0.4184847974546355,0.09788974015905898,-0.09071255044391104,0.008266276231204309,0.15908008442568652,0.18917760328425823],[0.6259198660953648,0.4733603323738839,0.21296402635993011,-0.3130291248621561,0.29625350533132977,0.7017310518846058],[0.44871818504001404,0.569640358332773,-0.16451498775540918,-0.35377945261523625,0.39781990613061974,0.21013564164954548],[0.2166007685755642,-0.07961551810253051,0.2033702876105996,0.5966481833801165,0.2562819639708846,0.5029488406350188],[0.40854228452739666,0.06059913024693607,0.6319452820066638,-0.4868989226549453,0.3121226844561803,-0.29438799934388993],[0.5202454283727258,0.15051979232244297,0.5479628565369661,0.14117251280816662,0.3746949883436098,0.26718735606920224],[0.564950688678544,0.5239985099005209,0.5713891509136654,0.45712708103067407,-0.014868197930775762,-0.16699558048968996],[0.4265821477542565,-0.30721871415015417,-0.22186791640772702,0.3971494437383531,0.06004138870463612,0.3060992634286269],[-0.13752016263179667,0.5029080467197714,0.36607930138501144,0.2170792347138274,-0.00506039715474213,0.10237944780601085],[0.08592369444740108,0.2671791036241687,0.061393586005779544,-0.25612635860754346,0.5938259302520555,-0.5293104713209142],[-0.19591104690365538,-0.0001800324728324365,0.15846460358972075,0.559639491318464,0.17691780822199293,0.08534153520614304],[-0.1701502387124693,-0.1850382914750526,0.4958208255887659,0.6215826627545064,0.3431608346992687,0.0017701712165547265],[-0.23898712187563334,-0.35760725253452463,-0.23493037117597904,0.663048689923379,0.13128299131892612,0.39963145638664205]]},{"inputs":[1,1,0,1,1,0],"outputs":[1,1,1,0],"biases":[-0.4116843109428972,-0.07224826372036165,0.6430915630388789,0.5348492481729592],"weights":[[0.30316240993993776,-0.09907109590338224,0.7129143978548441,-0.20038330546040445],[0.308714190921492,0.2983124644060601,-0.2515920870531046,0.3634359060220872],[0.6053147679761602,-0.4137775954374968,0.49424479399682086,0.3343510157808839],[0.46073366410616023,0.2589060447987502,0.32287142632219135,-0.5601304963635253],[0.44836824389551916,-0.12888713392171255,-0.04348289315188055,0.14360161045112171],[-0.5821791754365333,-0.5014321220546322,0.13111224610434805,0.14150105860638018]]}]}]]