[["AI01",{"levels":[{"inputs":[0,0,0.14265566419058584,0.24138762140244452,0.10457683002856943,0,0,0.20946614172115396,0.5228256602616261,0.5771382582013529,0.5000878454034209,0.09080262201335443,0],"outputs":[1,1,1,1,0,1],"biases":[-0.2226314419162467,-0.5400333360370192,-0.767677092225747,-0.029621797467569558,0.8395994284957845,-0.5408145555205601],"weights":[[-0.598669843823486,0.34402101067049434,0.35047290942096215,0.22509364974508772,0.12569847536891243,0.30711042682860795],[0.3184046190995178,-0.8498634875659199,-0.06567814183091061,-0.6080524561462595,-0.39704013089244206,0.022352539854533265],[-0.702141055193282,0.7266374215516278,0.6481071864710364,-0.5403775806954537,-0.4528754849833283,0.5437272155844429],[0.2616609450323077,-0.03175360261431067,-0.34228190014578275,-0.05631938067164588,0.34370535514161854,0.7004444913290075],[-0.5230196194904437,-0.7248862300282465,-0.31597653017537275,-0.6779576837612094,-0.044640291871549685,-0.01768843986599894],[0.19823531075473738,0.37764072937684173,-0.7316890851117881,-0.7236241562987552,-0.0925159108486632,0.7527045613994727],[-0.4680756545191635,0.45859610765130493,-0.0735313082069255,0.12992558539975096,-0.42070689921103166,0.015607844220330944],[-0.27414149368656726,-0.0400385356327847,0.34400165008980504,0.6604160709117043,-0.2891816945275827,0.08264104189311902],[-0.5405693309664701,-0.6902460801585473,-0.43539251173627713,0.32026122417465286,-0.11431782600666099,0.41528797257789374],[0.1883740453675859,0.14399064431105213,-0.6356211879921457,-0.07211816634513535,0.8068635873715865,0.5487043031665795],[0.3423103953323529,0.533943365406478,0.5584866583005071,-0.37503892907796815,0.7076215644404948,0.7260723693263783],[-0.2669039029186254,-0.7800869427517876,-0.4645530301571054,0.7036374506820015,-0.09478105877296,0.2906904014683447],[0.7776094392945263,-0.5896129549245089,0.2970851263550423,-0.05565308845583444,0.11069399507333197,0.40521789433463107]]},{"inputs":[1,1,1,1,0,1],"outputs":[1,1,0,0],"biases":[-0.12831826885608077,0.7589614545442143,0.6843096793953652,-0.008938360614840019],"weights":[[0.517444418645873,-0.12870553881254335,0.6015520197756352,0.6342425581874245],[-0.19721332335394015,0.10676852338201541,0.8282221012498567,0.36510267329741264],[0.5217890460375249,0.3584746578620143,0.6046438264767899,-0.32030798348274003],[0.09227166175868189,0.7065836809219865,-0.6869517851879813,-0.436607534425936],[0.3117020544230494,0.6914510788714182,0.027838778386985168,-0.6767118372172227],[-0.03252638526991965,0.09892295668860301,-0.7064515577492932,-0.7918391521357984]]}]}]]