[{"AI01":{"levels":[{"inputs":[0.5216434558174949,0.2328534195175176,0,0,0.7996496725828197],"outputs":[0,1,0,1,1,0],"biases":[0.2359169492241291,-0.8713973571404035,0.6512638005381244,-0.09451945051760458,-0.7068229864932141,-0.016912419618606123],"weights":[[-0.4535221637831546,-0.5925454694718182,-0.46931214423908996,0.9002860830742745,-0.9820881610660259,0.6038237179022397],[0.350611302886199,-0.3618719130579091,0.3211310695199745,0.6586437644252907,0.2605723999984635,0.5108637106309026],[0.6972362334151616,-0.9469399167344048,-0.8742583245710995,0.6435248298146128,-0.8370244888527529,0.0787797687460734],[-0.979467007878934,-0.15995815098133592,0.6742514962507618,0.9985893388301705,-0.33772933730043153,-0.2364361782940927],[-0.6810703001261809,-0.17719146586325518,0.987242638943568,-0.6870442042032612,0.7771552104191142,-0.7962494330598817]]},{"inputs":[0,1,0,1,1,0],"outputs":[1,1,0,0],"biases":[-0.6992862912665263,-0.3151523818316617,-0.9807709570632248,0.8158232548294286],"weights":[[-0.2801294285178617,0.5948016474250921,-0.31193809948700224,-0.8148447242438515],[0.06269855020179849,0.8717480750077238,-0.6821753240739099,-0.19198021261273857],[0.5857890892959738,-0.13747840752558904,-0.03831675693792569,0.452638548389384],[-0.5637326340671178,0.02191544781799859,-0.8139615926994268,0.6013124826486003],[-0.11762793749890932,-0.88663156095989,0.1573829449131785,-0.434168380879294],[0.9618728527238436,-0.32348563715706824,0.9611450047240448,-0.16097121780393175]]}]}}]