[{"AI01":{"levels":[{"inputs":[0,0.2806157171968787,0.5331285499337393,0.6932061588325418,0.7557364924619392,0.7389983373083168,0.6066442978161454,0,0,0,0,0,0],"outputs":[1,0,1,1,0,0],"biases":[0.11389310943211539,0.47087523592266445,0.04833023715072615,-0.7465061898385907,-0.2953140768853828,-0.9593821769101112],"weights":[[0.07197317959411009,0.9171811135881267,0.18624566078690696,-0.5565322987261996,-0.09110644900782017,-0.13397285128009084],[-0.9215066279158104,-0.6160070095667631,-0.5954134381468208,0.922116030852353,0.516476400040562,-0.7166910019027175],[0.5447309351341585,-0.2190369348529706,0.8329091787588947,0.36228493527328487,0.5218128022152024,0.28920812305811205],[-0.6998543127952841,-0.2184956302808505,0.6251124314766123,-0.49232746200582955,-0.40532806804283306,-0.170856141702743],[0.858946751623817,-0.8197096430118385,-0.10964499871834033,-0.609264771543935,-0.7920114161251353,-0.8348879239103701],[0.8046955845693269,0.3012688948570621,0.23216554170358217,0.4412311345886004,-0.6398506054368855,-0.938732726772471],[0.11250916836565628,0.7395764208453701,0.5572062950755394,0.8326580407319377,0.3139911945574325,-0.749847797092893],[-0.7795468382403934,0.23904553303928378,-0.6263981633940965,-0.31208493441628526,0.9225364940143725,-0.8480783128969649],[0.10206351472740627,-0.7327352200237875,0.369234800711868,0.9452084205494913,-0.22704047960000118,0.8484307439864187],[-0.4335194165646783,0.4283747848226276,-0.8320036122239078,-0.3771767793918812,-0.6495553339946141,-0.6885124996876186],[0.627731527536644,0.37135943031029894,0.9885321868103425,-0.5964032684799494,-0.6727081056347637,-0.5329013472295796],[-0.6273314378967787,-0.13920081189698763,0.6238337888093106,0.8213580333010908,-0.4552065401792045,0.11093214402660978],[0.48129593401864,0.16687313369806267,-0.20265929514304348,-0.33350809839349216,-0.8913642776641653,0.6280421100522977]]},{"inputs":[1,0,1,1,0,0],"outputs":[0,0,1,0],"biases":[-0.1822997500447947,0.24061551256643376,0.9620761994854217,-0.28712552894137966],"weights":[[-0.48616168017712313,-0.8303834635212577,0.8864099132088357,-0.440631475906927],[0.7218743362854201,-0.01459076453946917,0.515180919052467,0.7042952533468863],[-0.6120702825117874,-0.7598650555692257,0.7772953029686627,0.7211721255951731],[0.5771036063658754,0.8975465069056354,0.15526191228049147,-0.8822919296347185],[0.43481067885749836,0.8119548255074314,-0.3586583115444606,-0.46564556508113686],[0.37910858444387685,0.8135938912190963,-0.18518872472154913,-0.14652659246812538]]}]}}]