[["AI01",{"levels":[{"inputs":[0.3243488829340663,0,0,0,0.0902486301805594,0,0,0.47761897141641707,0.7183428057298575,0.7772121344132884,0.7632589408002106,0.6773333396941569,0.3243488829340665],"outputs":[0,0,1,1,0,1],"biases":[-0.05905793105953959,0.334428137680336,0.01107025435689671,-0.4728375451515128,0.021111035357623,-0.6860517217418611],"weights":[[-0.03733150075924779,0.5939153200199119,-0.0523370329837178,-0.4152340503529479,-0.07919703286950204,-0.15556030422149003],[-0.7406879091428812,-0.47175177159150117,-0.5618002391555721,0.802661506101475,0.3828967878090312,-0.5454384536205612],[0.5662126742981537,-0.29893924902470825,0.5865747855640843,0.37332681443016613,0.4830466384458546,0.10665042912884734],[-0.42016208587195036,-0.14376774240583737,0.3711130787500636,-0.5339234459847767,-0.39917275904181443,-0.26082546253258326],[0.7526857739598122,-0.5813787035048101,0.017929785690651373,-0.4072593940139231,-0.4437728622303341,-0.7093932708859204],[0.6305136267338931,0.18924694799984104,0.15613133348589253,0.3299673277670152,-0.5610629562719456,-0.8021939094263377],[0.1530636106217632,0.5285511634177548,0.5117337297474123,0.4840620656241783,0.026717760934358473,-0.7552034976508999],[-0.5623888299034494,0.16751176365677178,-0.565045610252461,-0.1669513948451627,0.8711718541494727,-0.6915917685098978],[-0.0635348293950858,-0.7016907049094429,0.3538602093670329,0.7113569520040138,-0.13454806951921738,0.5718778787418007],[-0.2805651427503771,0.30677927744077466,-0.5144114228110828,-0.22764998143231277,-0.45369282336344574,-0.5975050982603332],[0.3571924147006157,0.1271170478681891,0.837162537088983,-0.49377256029545313,-0.5396516476900539,-0.3722674461454363],[-0.3264614330855993,-0.09599454807452917,0.5726558871076882,0.566158797632967,-0.2661239070012995,-0.01917741595379513],[0.4545515107278237,0.21717665390544044,-0.15260828477577748,-0.2245923764396056,-0.5542432327575175,0.5743818622199366]]},{"inputs":[0,0,1,1,0,1],"outputs":[1,1,0,0],"biases":[-0.11165629246191458,0.12960430035800272,0.756694355867503,-0.16764535335107322],"weights":[[-0.29254989830789874,-0.7940086582740629,0.5837786471001203,-0.2074420176627319],[0.5679143174511765,-0.20177551685841227,0.3705121746583627,0.4333364921310954],[-0.3905505001857238,-0.5626491705439709,0.5067687712774014,0.4266711741592184],[0.479502915317537,0.700383032694909,0.17702770251253397,-0.7104107511054953],[0.22689181802686004,0.5657865110916129,-0.45607974680327124,-0.5398949095185589],[0.23932396943072548,0.6305165384030318,-0.15697082135322793,-0.07776639936367737]]}]}],["AI02",{"levels":[{"inputs":[0,0.034879170281427174,0.2549805592774024,0.2240242426799114,0,0,0,0,0,0,0,0,0],"outputs":[1,0,1,1,1,1],"biases":[-0.08381568383769206,0.3402214640805346,-0.007476410336491055,-0.45100667818320084,-0.07172152664015993,-0.6072311514948013],"weights":[[-0.0551712294008392,0.5170938521561189,-0.07795060891749332,-0.2781007468882335,-0.012310635406617643,-0.07389073273533933],[-0.6877244200605531,-0.5004000282524157,-0.45775559268335975,0.6232957822374161,0.4386961942686974,-0.5027914441263946],[0.4861958427083378,-0.2873047426536103,0.47051882647379917,0.3966809019083628,0.435406554092606,0.1217827753324088],[-0.4469280393770317,-0.10323534962968933,0.39104213587366726,-0.4447249039298167,-0.333728988932701,-0.29913843628503306],[0.6840410373864938,-0.5230226766447811,-0.07246194958696159,-0.3988366661083412,-0.3510734253449365,-0.5677052523552372],[0.5092903796122735,0.24787018601416233,0.1280632767809145,0.3288643307063823,-0.4675551879593232,-0.6262850551044812],[0.10506901365357327,0.4611191054419837,0.38072191720122517,0.48197290741548604,0.029454609067229395,-0.6644298500746356],[-0.5992288912149304,0.08029797286056332,-0.5012150985469457,-0.23186269754898442,0.688502024168269,-0.62452663550417],[-0.05144861943140086,-0.6237887792732705,0.31581022906711204,0.5446875029441011,-0.17412167275150542,0.5570182950381266],[-0.21207519240752049,0.3187716640311935,-0.4647510414790641,-0.1356138699799646,-0.4709167259087938,-0.4469016361508832],[0.2351393450750559,0.05211309706760235,0.7292838061398859,-0.36077786194874095,-0.5546954370003658,-0.4172355578614669],[-0.31937847188616003,-0.1358473734044558,0.4606250298021802,0.5041531321307671,-0.2986482299053666,0.05420163571029665],[0.3148983927847553,0.17332751566519936,-0.07928240708028723,-0.2483064269927564,-0.5036220432910042,0.6168512831052224]]},{"inputs":[1,0,1,1,1,1],"outputs":[1,1,1,0],"biases":[-0.1764332129826494,0.184171145786921,0.6225579848950955,-0.2343312555014194],"weights":[[-0.19256517647013344,-0.645441845234629,0.4370661039908915,-0.13212864119812767],[0.5623909397535443,-0.2504181284368365,0.34611381835825644,0.45463841525618975],[-0.37555842728295746,-0.41637301195218646,0.46774305517621895,0.2931843274488475],[0.4907672469544671,0.6059419352564813,0.15183889559782665,-0.6588496554089877],[0.27422592935199824,0.4282485554609624,-0.31748141627992965,-0.5343397314552829],[0.23990608468394065,0.5840273769932365,-0.1142958744850791,-0.0029311035810565683]]}]}]]