[{"AI01":{"levels":[{"inputs":[0,0,0,0.3993448458899136,0,0,0,0.10439960364722978,0.202138262212194,0.2814098577661217,0.2822894175688252,0.18743730637827183,0],"outputs":[1,1,1,1,1,1],"biases":[-0.45717533184913267,-0.1627783346843797,-0.3925099385623378,-0.5116118144059569,-0.3947106941623989,-0.7754264767461216],"weights":[[-0.038233391369351666,-0.20680455450026497,-0.40650210153244226,0.2896250209515184,0.13836215229928553,-0.4891169397965696],[-0.2259723603014796,0.2247101673737776,-0.6173728638874512,0.1001203516905352,0.06335249225988374,-0.3992901529100641],[0.46861715047044294,-0.5546348726388979,0.04971073808042238,-0.40561330647730365,-0.35739898220628064,0.08249307390555696],[-0.3654928433851225,-0.01681477793664469,0.3414702218263179,0.21296077003106137,-0.45314214619394877,0.32349542398681197],[-0.764160832341416,-0.45603552451468254,0.4833220576483388,-0.35317641202939887,-0.5449134890841565,-0.21758449957631099],[0.09787144444756257,-0.20894140383904153,-0.10630019295627641,-0.09862310456213816,0.2178225044139762,0.6077146761659928],[-0.20337986106725642,0.24898397194841654,-0.03208249081264427,0.28504622962496073,0.40783446976098436,0.4327338883104559],[-0.13231513494982144,-0.24773891532323722,-0.08230092068669359,-0.007652214845845874,0.4041153256391058,0.2758604642656567],[0.1988219773149281,-0.25318019591868374,-0.4906237800341636,0.04293738328844743,-0.6676743409107888,0.22397306643380177],[0.18800605206540347,0.5108253605652978,0.2777598515666655,-0.5274284821138205,0.7313896687602957,0.21289379564751723],[-0.6435908647191453,0.03302313361745411,-0.26616801008646757,0.41783727546468713,-0.4860578419930181,-0.3171492177773063],[-0.5764273326646335,-0.3571529896070632,-0.3520554923761081,-0.7573872732887491,0.1336414655071139,0.625565927641518],[0.23419394815756858,-0.293392104478193,-0.6657874696667598,0.44307889154602675,0.37824359976074745,0.36669367686822585]]},{"inputs":[1,1,1,1,1,1],"outputs":[1,1,0,1],"biases":[-0.10724464080328538,-0.6606270029678661,-0.3522228928992539,-0.5083151374121221],"weights":[[0.31351542924962333,0.3976600726745613,0.2847647766306537,0.3000767838137326],[0.13249721727072472,0.6713146136414531,-0.5274941761087343,-0.6277627474865141],[-0.008096767456173128,-0.4274960743247648,0.19461271794051657,0.5232025584187123],[-0.24343185442663617,-0.22675783258175453,-0.21042138772532332,0.16792147247004435],[-0.6259434452430319,-0.5524838255235991,-0.43793731273650793,-0.2051521630459576],[0.5687780933357662,-0.1066556566869474,0.26923315593878683,0.440893294419813]]}]}}]