[["AI01",{"levels":[{"inputs":[0.556129576131744,0.34008130171388073,0,0,0.1804697584965298,0.1977156322602881,0.13601305607658498,0.06554763678714726,0.030530483401375652,0,0.4601758427053134,0.5810317923301128,0.5561295761317445],"outputs":[1,0,0,0,0,0],"biases":[-0.48795681021942094,-0.8088252198737176,-0.10728049447287358,0.6497064797294358,0.8634773045015591,0.5069956754263876],"weights":[[0.6804059070341251,-0.6853087481298354,0.5157440279867589,-0.17367016942643154,-0.4458933051995282,0.2644308944620981],[0.21974646587110414,-0.5626964475888041,-0.8433194757982325,0.7410492870736989,0.15644034633785076,-0.817132147303302],[-0.26949146489269493,-0.34699389944975234,-0.7701339540335725,-0.027936411478449497,-0.6664618097140487,0.11962814698667801],[0.6076005475881705,0.0011865521551541747,0.04642719782097604,-0.22449483854711527,-0.10471711664920935,0.18522751930459114],[-0.36679274949088425,0.7377555601697607,-0.7899256744354668,-0.5311076710578013,-0.8145577447880932,0.6631789201461187],[0.24236711519953813,0.9441885233314897,0.028629515745191014,-0.5528942921229474,0.7548688296781836,0.7380945755750021],[-0.5924522776151391,-0.25296861882940913,-0.9442013683132813,0.9715882883464904,0.863889476207905,-0.05388416738166901],[0.19731069987956884,0.882446066158634,-0.5151497500587192,0.2918246794962607,0.22827435138341823,-0.9782797744074299],[0.05352046447728309,-0.7469011205405263,0.7142714241677597,0.6416314031528474,0.0058449599392695895,-0.3791396339400128],[0.2154024432746331,-0.037056282469114965,-0.7549471859297161,0.5818359091861955,0.8450305993243097,-0.7414896420427484],[-0.8125863422086845,-0.5094072743074656,0.41170683271886377,-0.3448641657513245,-0.22673379855538478,0.5553338436445165],[0.410376564978435,-0.28951092680150525,-0.6479499903726826,0.3133203684280601,-0.4811184932480179,-0.3931136952075702],[-0.9168779799674778,-0.33743999548035397,0.36989925914370625,0.9018807494092895,0.889967603384612,-0.023948313239504415]]},{"inputs":[1,0,0,0,0,0],"outputs":[0,0,1,0],"biases":[0.1259076619188817,-0.803806492631562,-0.8335402940295777,0.3264621846459219],"weights":[[-0.9019343527682775,-0.9164028699907476,-0.5249967026072877,0.1270491240888063],[0.11848429185154563,-0.0969466148014213,0.35358222014995233,0.6098232426291061],[0.34077877627732533,-0.19259309509201739,0.6456661507360453,0.9198904635943341],[-0.235080652916686,0.47399000170808003,-0.8500435813803082,0.47554852372877754],[-0.33754587625981625,0.08176765067999314,0.49851927296189347,0.19666401723392335],[0.5614754867176122,-0.3886325203811518,-0.6408222574721885,0.49572845995483306]]}]}]]