[["AI03",{"levels":[{"inputs":[0,0,0,0,0,0,0.5685659012135285,0.8284786351060311,0.8714704586881452,0.8692078552289753,0.8169323456681055,0.44920017813210955,0],"outputs":[1,1,1,0,0,1],"biases":[-0.1556398527048546,-0.4398391215345234,-0.9223627324659729,0.6799814822207906,0.07441934151341023,0.5183226138741888],"weights":[[0.5808929378643239,-0.30285416189104764,0.3461509339113866,-0.40654808420733435,-0.5324731204343687,-0.5207573646103718],[-0.64941616880304,0.810780516183796,0.7640490930805348,0.6003477078185293,-0.8990370910901047,-0.0356946630843038],[-0.7149359397635595,0.043520654088238686,-0.3393373587235806,-0.2897270806976757,-0.8616244002228455,0.6267192096718959],[0.7102959411150445,-0.139497901348415,0.11395102213914665,-0.7076154296602328,0.17545872698273168,0.7444671209209233],[-0.16246411013855377,0.35004951869229517,0.694716244085066,0.044375644575577855,0.8218218576628855,-0.05046770993390037],[-0.7485852981148984,-0.2549474174381374,0.19608995916131322,0.6481716825644939,0.5918191673069533,0.0831095162599329],[-0.8838409634863331,-0.24997403799531126,0.5890103929926256,0.5346063217504002,0.8955974557161972,-0.5601453646007943],[-0.6667511758559024,0.5788099402441995,0.40417845831681687,-0.07013271871358118,-0.8260469855829435,-0.05420706392582764],[-0.006559356688540685,0.026336078969820598,0.9791219245100136,-0.5622195545432374,0.47312938592604104,0.5993385987306183],[0.7888852551210643,0.6403219641472946,0.1565894196069899,-0.19625422068918175,-0.8428323502145698,0.9407321313297796],[0.12682950151969585,-0.4769153197762579,0.26134311010666833,-0.6004841768703248,-0.3872564171950068,-0.7140573618642336],[0.6929308644262888,-0.09206687647598422,-0.16356950291578265,0.051727914920919105,-0.7968888390428264,0.8534849755169422],[-0.2638123827258312,0.4144575652069329,-0.469440779769688,-0.9949569792918878,-0.2463161617453502,-0.6816398425808177]]},{"inputs":[1,1,1,0,0,1],"outputs":[1,1,1,0],"biases":[-0.5330166882614504,-0.10592581575418247,-0.9842759857855801,-0.35261985409543417],"weights":[[0.8598610514936667,-0.09284225824329706,-0.9244369084551098,-0.651613636734028],[-0.9307183791905334,-0.06454126168372243,0.10482762943829993,-0.6675646748821911],[0.16642336795780244,-0.32850696686628833,0.8428073333320136,-0.5551785165523353],[-0.21621329396470346,-0.5047797226589967,-0.5546556988798419,0.35825816888630024],[0.8516284170038819,0.9246091158164602,-0.1768201719741156,0.5781451063395013],[0.31492401200517506,0.7248403416320852,-0.18751667116997028,0.28776434057293265]]}]}],["AI02",{"levels":[{"inputs":[0,0,0,0.050000000000000044,0,0,0,0,0.33027368774003396,0.3635294117647059,0,0,0],"outputs":[1,0,0,1,0,0],"biases":[-0.6039670627769689,0.5065591549807755,0.6896677437960483,-0.5495651153080043,0.8032560415512222,0.2952593516006461],"weights":[[0.14168687795957746,-0.31481905961390444,0.44078337958941693,0.013274057233810588,-0.18174163867007165,-0.9294808208616256],[0.7598658809185497,0.40365179994529976,-0.4538817190967741,0.9665510784630227,0.7313621973657956,-0.3227902795027675],[0.17422583465948893,0.4181224009032345,0.8771550241455759,-0.5516315729779904,-0.2846547915109645,0.8821278108710606],[-0.040459676021374236,0.7993048247462307,-0.9542780879135049,0.3128426779253841,-0.8689242032476714,0.4849126402912063],[0.9374163981251016,-0.33753225472437576,-0.15959148794291078,0.8296391567300487,0.4100659395274806,-0.26232147204801803],[0.9366231243565619,-0.0721421546355221,0.6234107752566667,-0.7220121374316388,0.8431856703937726,-0.022952864444557797],[-0.8334797586335152,0.19530890940492363,-0.5263276835379793,-0.41315819391693553,0.6324698098763437,0.6341143350710148],[0.9383981169776368,0.8849274743792597,0.24772324313110472,-0.49914951722983014,0.47701296454793063,0.17011676060430014],[0.7028422218211245,-0.16975017780579105,-0.4516298868557058,0.5618161965280186,-0.4329219373788442,0.7112155747265554],[-0.4812808465423277,0.67592795184824,0.5475970087220481,0.10419383437453389,-0.5491737248772641,-0.44120050650800735],[0.007196663740614007,-0.01212746545358856,0.39365322606339603,0.32100019327229745,-0.5459787534459579,0.5477250414561134],[-0.1330314697764554,0.9607413579753832,0.5073910550681129,0.010872300190332584,0.5742818192384522,0.08522075606364332],[-0.46919012013258055,-0.05577595367085353,0.8167092387018511,-0.5562077382496753,-0.25199995937194686,0.7924765368214377]]},{"inputs":[1,0,0,1,0,0],"outputs":[0,1,0,0],"biases":[0.9649216153893887,-0.5916962360308067,0.3170174130559671,0.9733806552857294],"weights":[[-0.9676789574107287,-0.6826389939849435,-0.1545490617427947,0.21615263727364287],[0.7435076615889571,0.6533087707288798,-0.32992283120328203,0.3502445617272505],[0.9202849984662342,0.714504124988792,0.3930951626384638,-0.8524323741170798],[-0.04343608509429764,0.2257807147307882,-0.6540897387878228,0.6420918428953097],[-0.8310804554148272,-0.1804235733263,0.16368053252341452,-0.062413569459044194],[-0.10097894083163084,-0.46737830411715864,0.4947844822124696,0.6524925613683519]]}]}],["AI01",{"levels":[{"inputs":[0,0,0,0.050000000000000044,0,0,0,0,0.33027368774003396,0.3635294117647059,0,0,0],"outputs":[1,0,0,1,0,0],"biases":[-0.6039670627769689,0.5065591549807755,0.6896677437960483,-0.5495651153080043,0.8032560415512222,0.2952593516006461],"weights":[[0.14168687795957746,-0.31481905961390444,0.44078337958941693,0.013274057233810588,-0.18174163867007165,-0.9294808208616256],[0.7598658809185497,0.40365179994529976,-0.4538817190967741,0.9665510784630227,0.7313621973657956,-0.3227902795027675],[0.17422583465948893,0.4181224009032345,0.8771550241455759,-0.5516315729779904,-0.2846547915109645,0.8821278108710606],[-0.040459676021374236,0.7993048247462307,-0.9542780879135049,0.3128426779253841,-0.8689242032476714,0.4849126402912063],[0.9374163981251016,-0.33753225472437576,-0.15959148794291078,0.8296391567300487,0.4100659395274806,-0.26232147204801803],[0.9366231243565619,-0.0721421546355221,0.6234107752566667,-0.7220121374316388,0.8431856703937726,-0.022952864444557797],[-0.8334797586335152,0.19530890940492363,-0.5263276835379793,-0.41315819391693553,0.6324698098763437,0.6341143350710148],[0.9383981169776368,0.8849274743792597,0.24772324313110472,-0.49914951722983014,0.47701296454793063,0.17011676060430014],[0.7028422218211245,-0.16975017780579105,-0.4516298868557058,0.5618161965280186,-0.4329219373788442,0.7112155747265554],[-0.4812808465423277,0.67592795184824,0.5475970087220481,0.10419383437453389,-0.5491737248772641,-0.44120050650800735],[0.007196663740614007,-0.01212746545358856,0.39365322606339603,0.32100019327229745,-0.5459787534459579,0.5477250414561134],[-0.1330314697764554,0.9607413579753832,0.5073910550681129,0.010872300190332584,0.5742818192384522,0.08522075606364332],[-0.46919012013258055,-0.05577595367085353,0.8167092387018511,-0.5562077382496753,-0.25199995937194686,0.7924765368214377]]},{"inputs":[1,0,0,1,0,0],"outputs":[0,1,0,0],"biases":[0.9649216153893887,-0.5916962360308067,0.3170174130559671,0.9733806552857294],"weights":[[-0.9676789574107287,-0.6826389939849435,-0.1545490617427947,0.21615263727364287],[0.7435076615889571,0.6533087707288798,-0.32992283120328203,0.3502445617272505],[0.9202849984662342,0.714504124988792,0.3930951626384638,-0.8524323741170798],[-0.04343608509429764,0.2257807147307882,-0.6540897387878228,0.6420918428953097],[-0.8310804554148272,-0.1804235733263,0.16368053252341452,-0.062413569459044194],[-0.10097894083163084,-0.46737830411715864,0.4947844822124696,0.6524925613683519]]}]}],["AI01",{"levels":[{"inputs":[0,0,0,0.050000000000000044,0,0,0,0,0.33027368774003396,0.3635294117647059,0,0,0],"outputs":[1,0,0,1,0,0],"biases":[-0.6039670627769689,0.5065591549807755,0.6896677437960483,-0.5495651153080043,0.8032560415512222,0.2952593516006461],"weights":[[0.14168687795957746,-0.31481905961390444,0.44078337958941693,0.013274057233810588,-0.18174163867007165,-0.9294808208616256],[0.7598658809185497,0.40365179994529976,-0.4538817190967741,0.9665510784630227,0.7313621973657956,-0.3227902795027675],[0.17422583465948893,0.4181224009032345,0.8771550241455759,-0.5516315729779904,-0.2846547915109645,0.8821278108710606],[-0.040459676021374236,0.7993048247462307,-0.9542780879135049,0.3128426779253841,-0.8689242032476714,0.4849126402912063],[0.9374163981251016,-0.33753225472437576,-0.15959148794291078,0.8296391567300487,0.4100659395274806,-0.26232147204801803],[0.9366231243565619,-0.0721421546355221,0.6234107752566667,-0.7220121374316388,0.8431856703937726,-0.022952864444557797],[-0.8334797586335152,0.19530890940492363,-0.5263276835379793,-0.41315819391693553,0.6324698098763437,0.6341143350710148],[0.9383981169776368,0.8849274743792597,0.24772324313110472,-0.49914951722983014,0.47701296454793063,0.17011676060430014],[0.7028422218211245,-0.16975017780579105,-0.4516298868557058,0.5618161965280186,-0.4329219373788442,0.7112155747265554],[-0.4812808465423277,0.67592795184824,0.5475970087220481,0.10419383437453389,-0.5491737248772641,-0.44120050650800735],[0.007196663740614007,-0.01212746545358856,0.39365322606339603,0.32100019327229745,-0.5459787534459579,0.5477250414561134],[-0.1330314697764554,0.9607413579753832,0.5073910550681129,0.010872300190332584,0.5742818192384522,0.08522075606364332],[-0.46919012013258055,-0.05577595367085353,0.8167092387018511,-0.5562077382496753,-0.25199995937194686,0.7924765368214377]]},{"inputs":[1,0,0,1,0,0],"outputs":[0,1,0,0],"biases":[0.9649216153893887,-0.5916962360308067,0.3170174130559671,0.9733806552857294],"weights":[[-0.9676789574107287,-0.6826389939849435,-0.1545490617427947,0.21615263727364287],[0.7435076615889571,0.6533087707288798,-0.32992283120328203,0.3502445617272505],[0.9202849984662342,0.714504124988792,0.3930951626384638,-0.8524323741170798],[-0.04343608509429764,0.2257807147307882,-0.6540897387878228,0.6420918428953097],[-0.8310804554148272,-0.1804235733263,0.16368053252341452,-0.062413569459044194],[-0.10097894083163084,-0.46737830411715864,0.4947844822124696,0.6524925613683519]]}]}]]