[["AI01",null],["AI01",{"levels":[{"inputs":[0,0,0.2653942125132196,0.6236744581475394,0.7243772356693826,0.7242795366487094,0.6231763808921775,0.28964361179956166,0,0,0.00940720598200484,0.030296607154808974,0],"outputs":[0,0,0,1,1,0],"biases":[0.33957606768195125,0.9292559113275174,0.2908263203169965,0.5762282778033274,-0.5264193262903776,-0.07009112616412772],"weights":[[-0.030555538708671115,-0.39375728465984405,0.5721790722552211,0.9561914193920567,0.7833714104373426,-0.473713310913201],[0.7070435263191603,0.6960483200579417,-0.7000474576029236,0.20543560871393662,0.2893758054322646,-0.1547469315676464],[-0.7309391691380007,-0.5884190844977204,-0.47842065606828177,-0.3636545770630564,0.08484645425931614,-0.9828417604644386],[0.39354139072324434,0.8193517555971734,-0.4524566860241124,-0.6643410883701377,0.6071762156970526,-0.2221373274792482],[-0.2104044452141407,-0.42563168795977413,-0.6044599728610165,0.19256231514812283,0.8872161764482827,0.62997906803046],[0.42360081434876307,0.9127901962995977,-0.6953169367580823,0.8894372321116277,0.005740962554164231,-0.07759141227759248],[-0.21736989682493713,-0.35102671275031616,-0.49662912699988127,0.8235959951576346,-0.5242670570682075,-0.03674490864481639],[0.1206104241979653,0.7606177529098495,-0.44585248010939793,0.15957336486132778,0.7338907862536428,-0.1355685822443209],[0.4797198904661566,-0.19547135641771352,0.12581546188232817,-0.21384511678227325,0.40367228451196224,-0.30794797873222857],[-0.387757385720259,0.1614211819893132,0.9006278903223013,-0.060232133004907595,-0.807575565135056,-0.40630861084660497],[-0.9944163971464604,0.17342230442757378,0.05962802576656179,0.36737459766115466,-0.1304387376509104,0.7601971933824747],[0.3131072875705416,-0.6859253929633513,-0.7207075025657188,-0.6055693086784371,-0.1106318532630568,-0.6104272730017102],[0.9543449228387622,-0.11820227360057167,0.29744414698378163,0.06417807841556344,-0.019163530639141335,0.16186365583223639]]},{"inputs":[0,0,0,1,1,0],"outputs":[0,0,0,1],"biases":[0.16939994069525888,-0.15390278700505977,0.3322447122938872,0.05401164306270356],"weights":[[0.6137577342695333,0.16970328631701115,-0.578960077066708,-0.47413494896432873],[0.17361828737940632,-0.7153670926630942,0.8009928062727121,0.013080182735542678],[0.45387455560123335,0.951398076909403,-0.059029523579744225,-0.6713958571449101],[-0.6976302966570676,-0.6616651639734581,-0.36968699346248135,0.940491560390627],[0.8040011656913957,-0.8350326907014258,-0.14352211511396318,-0.33516474287226306],[0.7966208134892634,0.9017584952614919,-0.2987827515678587,-0.8349152211575852]]}]}]]