[["AI01",{"levels":[{"inputs":[0.3243488829340663,0,0,0,0.0902486301805594,0,0,0.47761897141641707,0.7183428057298575,0.7772121344132884,0.7632589408002106,0.6773333396941569,0.3243488829340665],"outputs":[0,0,1,1,0,1],"biases":[-0.05905793105953959,0.334428137680336,0.01107025435689671,-0.4728375451515128,0.021111035357623,-0.6860517217418611],"weights":[[-0.03733150075924779,0.5939153200199119,-0.0523370329837178,-0.4152340503529479,-0.07919703286950204,-0.15556030422149003],[-0.7406879091428812,-0.47175177159150117,-0.5618002391555721,0.802661506101475,0.3828967878090312,-0.5454384536205612],[0.5662126742981537,-0.29893924902470825,0.5865747855640843,0.37332681443016613,0.4830466384458546,0.10665042912884734],[-0.42016208587195036,-0.14376774240583737,0.3711130787500636,-0.5339234459847767,-0.39917275904181443,-0.26082546253258326],[0.7526857739598122,-0.5813787035048101,0.017929785690651373,-0.4072593940139231,-0.4437728622303341,-0.7093932708859204],[0.6305136267338931,0.18924694799984104,0.15613133348589253,0.3299673277670152,-0.5610629562719456,-0.8021939094263377],[0.1530636106217632,0.5285511634177548,0.5117337297474123,0.4840620656241783,0.026717760934358473,-0.7552034976508999],[-0.5623888299034494,0.16751176365677178,-0.565045610252461,-0.1669513948451627,0.8711718541494727,-0.6915917685098978],[-0.0635348293950858,-0.7016907049094429,0.3538602093670329,0.7113569520040138,-0.13454806951921738,0.5718778787418007],[-0.2805651427503771,0.30677927744077466,-0.5144114228110828,-0.22764998143231277,-0.45369282336344574,-0.5975050982603332],[0.3571924147006157,0.1271170478681891,0.837162537088983,-0.49377256029545313,-0.5396516476900539,-0.3722674461454363],[-0.3264614330855993,-0.09599454807452917,0.5726558871076882,0.566158797632967,-0.2661239070012995,-0.01917741595379513],[0.4545515107278237,0.21717665390544044,-0.15260828477577748,-0.2245923764396056,-0.5542432327575175,0.5743818622199366]]},{"inputs":[0,0,1,1,0,1],"outputs":[1,1,0,0],"biases":[-0.11165629246191458,0.12960430035800272,0.756694355867503,-0.16764535335107322],"weights":[[-0.29254989830789874,-0.7940086582740629,0.5837786471001203,-0.2074420176627319],[0.5679143174511765,-0.20177551685841227,0.3705121746583627,0.4333364921310954],[-0.3905505001857238,-0.5626491705439709,0.5067687712774014,0.4266711741592184],[0.479502915317537,0.700383032694909,0.17702770251253397,-0.7104107511054953],[0.22689181802686004,0.5657865110916129,-0.45607974680327124,-0.5398949095185589],[0.23932396943072548,0.6305165384030318,-0.15697082135322793,-0.07776639936367737]]}]}],["AI03",{"levels":[{"inputs":[0,0,0.08178782117967587,0.2104930744350929,0.09483073691709343,0,0,0,0,0,0,0,0],"outputs":[0,0,1,1,0,1],"biases":[0.046763867153032906,0.26416358696498043,0.08960164550523389,-0.49588928454488346,-0.026747097456574734,-0.5327127641595427],"weights":[[-0.08319347034742255,0.4362767530592344,-0.13335081378007113,-0.4256500331115719,-0.05472278982185059,-0.110318632226198],[-0.7075911965168847,-0.3714229087220041,-0.508820699644766,0.7226572403942169,0.3139560555644213,-0.5497899834609009],[0.5176997103989796,-0.3378473566417593,0.44285951779743266,0.25042067792222694,0.35574775072568876,0.17569062293486495],[-0.30307487353621115,-0.0996626359917406,0.397557073277511,-0.5349090315138548,-0.3598589306172425,-0.23417007337094106],[0.7036455378447207,-0.5801104094560627,-0.05409544856670047,-0.3215303108490353,-0.355874787884948,-0.60641419052662],[0.5018782052552809,0.2117007320894689,0.23570108100650972,0.24790963152971496,-0.4517759305855855,-0.694585155453298],[0.14599913970349213,0.4401801779496189,0.3999011607652625,0.4838733193328773,0.10897269468520128,-0.7526392938485005],[-0.5291623781924674,0.0691388770396304,-0.4187975415903292,-0.12388438846786459,0.7075248631002493,-0.6141376705388544],[-0.15388228741853022,-0.6978701716894313,0.33527036552782297,0.5545477498949506,-0.08432577607024899,0.588737832498702],[-0.15959110204094362,0.3242927441235126,-0.4272997163078809,-0.18763502897634743,-0.39914680076156833,-0.5883235733133689],[0.32665131951387993,0.1935195980766029,0.8192092971703228,-0.3761728554561666,-0.4123276403214473,-0.3234704739677292],[-0.2747958816775514,-0.0555093088344116,0.5103376668945331,0.5205399107629847,-0.264670859603904,0.035378166702409154],[0.34982971275320623,0.13190836965505995,-0.12789638674456474,-0.25736185828865976,-0.5486882332376294,0.5158196523445115]]},{"inputs":[0,0,1,1,0,1],"outputs":[1,1,0,0],"biases":[-0.17610909404221958,0.02313520747628249,0.6605110864791794,-0.17871358373645185],"weights":[[-0.22127033067980878,-0.7042616088310759,0.45368993625990595,-0.1307807809837222],[0.5066015539158836,-0.2732952118454102,0.3445357861755163,0.3008702368097802],[-0.3138792401191236,-0.46394400487207027,0.3732227954044084,0.32249908652957066],[0.5255474287214887,0.6483385221417213,0.2306091239814419,-0.6655751424721512],[0.16972811645217004,0.46446096736941445,-0.4591891914828086,-0.40908190039446923],[0.17326555858072884,0.47512204606215136,-0.11526747250429298,-0.16259626499764912]]}]}],["AI02",{"levels":[{"inputs":[0,0,0,0.5749670619235709,0.682109008731192,0.6897503085145662,0.6702831594634738,0.5073736372968558,0,0,0,0,0],"outputs":[0,1,0,0,0,0],"biases":[0.9953771152213444,0.1183314769115964,0.7215519834457242,0.4907616791051739,0.6550893050855664,0.24122761553754524],"weights":[[-0.9313299773900878,0.8058324691988519,0.34752303695307907,-0.6423412797966894,0.47934752414361803,0.3208225309372015],[0.9716708437346684,-0.29497860424070943,0.9949258204741276,0.4180228867554945,0.3939866951786559,-0.8346690956734313],[0.6393593461885216,0.7440057059461749,0.8149037124961511,-0.9316181543183575,-0.8273137279540106,0.10090131119622914],[-0.25001912837680385,-0.4353719695324023,-0.6966306702883989,0.8957184815941042,0.8831725469556071,0.23626318347290898],[-0.9331561553101153,0.1200604680267161,0.9756904795771923,-0.9392339098471925,-0.043396590896854104,-0.8978341960857992],[0.045448767673515356,0.36483219865500915,-0.583320112701585,-0.3576715497163989,-0.5608572071943927,-0.6952063320157618],[0.3463243724653866,0.46443943693026446,-0.42538538699443507,0.3103102047698356,0.16560089124996313,0.7075018659421191],[0.5952080521488452,0.2569720058411753,-0.16247724744439784,0.14239081175125712,0.0747345542575455,-0.4063176360614449],[0.48486005923285225,-0.1776774854386689,0.41032681222629774,0.18186433102325772,0.839238353710158,0.5412530241756648],[-0.11788001771959289,0.5951396166469172,0.018150626297403605,-0.4153346971971019,0.383600586665648,0.6388950739371833],[-0.47812887833380957,0.6290722522490597,0.6612039272868251,0.9595227231858106,0.015794437809477646,-0.3388080182853246],[0.6897189756150559,-0.15435531657172774,-0.30792405001181855,0.025559835072118453,0.020485484329864523,0.3664709769156258],[0.6554529662906532,-0.630344552579051,0.1631444472174599,-0.3174407659701002,0.18547757343242788,-0.25321516445037995]]},{"inputs":[0,1,0,0,0,0],"outputs":[1,0,0,0],"biases":[-0.8883543438641146,0.7770096154310151,0.9756229090204753,0.27752726904224856],"weights":[[-0.2493638571558794,-0.2260724027723331,-0.6673116296829185,0.32100769931054707],[0.24603870230652447,-0.7654330353884018,-0.18960216011639242,0.20418927410975973],[0.35451682002693374,-0.31941428745852596,0.5734620570252837,0.4358544737915788],[-0.6023818736131004,0.6014624329537916,0.9424526754143474,0.7471048645667415],[0.30846846147547646,-0.8852552264395901,-0.26423121245922365,0.46175263411991097],[-0.02563605317627493,-0.6419279775857523,0.4433090480626096,-0.2147724759668752]]}]}],["AI02",{"levels":[{"inputs":[0,0,0.2036710354274347,0.6854413702239651,0.7647350459844111,0.8000990168086701,0.7875558867362,0.6825895497950862,0,0,0,0,0],"outputs":[0,1,0,0,0,0],"biases":[0.9953771152213444,0.1183314769115964,0.7215519834457242,0.4907616791051739,0.6550893050855664,0.24122761553754524],"weights":[[-0.9313299773900878,0.8058324691988519,0.34752303695307907,-0.6423412797966894,0.47934752414361803,0.3208225309372015],[0.9716708437346684,-0.29497860424070943,0.9949258204741276,0.4180228867554945,0.3939866951786559,-0.8346690956734313],[0.6393593461885216,0.7440057059461749,0.8149037124961511,-0.9316181543183575,-0.8273137279540106,0.10090131119622914],[-0.25001912837680385,-0.4353719695324023,-0.6966306702883989,0.8957184815941042,0.8831725469556071,0.23626318347290898],[-0.9331561553101153,0.1200604680267161,0.9756904795771923,-0.9392339098471925,-0.043396590896854104,-0.8978341960857992],[0.045448767673515356,0.36483219865500915,-0.583320112701585,-0.3576715497163989,-0.5608572071943927,-0.6952063320157618],[0.3463243724653866,0.46443943693026446,-0.42538538699443507,0.3103102047698356,0.16560089124996313,0.7075018659421191],[0.5952080521488452,0.2569720058411753,-0.16247724744439784,0.14239081175125712,0.0747345542575455,-0.4063176360614449],[0.48486005923285225,-0.1776774854386689,0.41032681222629774,0.18186433102325772,0.839238353710158,0.5412530241756648],[-0.11788001771959289,0.5951396166469172,0.018150626297403605,-0.4153346971971019,0.383600586665648,0.6388950739371833],[-0.47812887833380957,0.6290722522490597,0.6612039272868251,0.9595227231858106,0.015794437809477646,-0.3388080182853246],[0.6897189756150559,-0.15435531657172774,-0.30792405001181855,0.025559835072118453,0.020485484329864523,0.3664709769156258],[0.6554529662906532,-0.630344552579051,0.1631444472174599,-0.3174407659701002,0.18547757343242788,-0.25321516445037995]]},{"inputs":[0,1,0,0,0,0],"outputs":[1,0,0,0],"biases":[-0.8883543438641146,0.7770096154310151,0.9756229090204753,0.27752726904224856],"weights":[[-0.2493638571558794,-0.2260724027723331,-0.6673116296829185,0.32100769931054707],[0.24603870230652447,-0.7654330353884018,-0.18960216011639242,0.20418927410975973],[0.35451682002693374,-0.31941428745852596,0.5734620570252837,0.4358544737915788],[-0.6023818736131004,0.6014624329537916,0.9424526754143474,0.7471048645667415],[0.30846846147547646,-0.8852552264395901,-0.26423121245922365,0.46175263411991097],[-0.02563605317627493,-0.6419279775857523,0.4433090480626096,-0.2147724759668752]]}]}]]