[["AI01",{"levels":[{"inputs":[0.3243488829340663,0,0,0,0.0902486301805594,0,0,0.47761897141641707,0.7183428057298575,0.7772121344132884,0.7632589408002106,0.6773333396941569,0.3243488829340665],"outputs":[0,0,1,1,0,1],"biases":[-0.05905793105953959,0.334428137680336,0.01107025435689671,-0.4728375451515128,0.021111035357623,-0.6860517217418611],"weights":[[-0.03733150075924779,0.5939153200199119,-0.0523370329837178,-0.4152340503529479,-0.07919703286950204,-0.15556030422149003],[-0.7406879091428812,-0.47175177159150117,-0.5618002391555721,0.802661506101475,0.3828967878090312,-0.5454384536205612],[0.5662126742981537,-0.29893924902470825,0.5865747855640843,0.37332681443016613,0.4830466384458546,0.10665042912884734],[-0.42016208587195036,-0.14376774240583737,0.3711130787500636,-0.5339234459847767,-0.39917275904181443,-0.26082546253258326],[0.7526857739598122,-0.5813787035048101,0.017929785690651373,-0.4072593940139231,-0.4437728622303341,-0.7093932708859204],[0.6305136267338931,0.18924694799984104,0.15613133348589253,0.3299673277670152,-0.5610629562719456,-0.8021939094263377],[0.1530636106217632,0.5285511634177548,0.5117337297474123,0.4840620656241783,0.026717760934358473,-0.7552034976508999],[-0.5623888299034494,0.16751176365677178,-0.565045610252461,-0.1669513948451627,0.8711718541494727,-0.6915917685098978],[-0.0635348293950858,-0.7016907049094429,0.3538602093670329,0.7113569520040138,-0.13454806951921738,0.5718778787418007],[-0.2805651427503771,0.30677927744077466,-0.5144114228110828,-0.22764998143231277,-0.45369282336344574,-0.5975050982603332],[0.3571924147006157,0.1271170478681891,0.837162537088983,-0.49377256029545313,-0.5396516476900539,-0.3722674461454363],[-0.3264614330855993,-0.09599454807452917,0.5726558871076882,0.566158797632967,-0.2661239070012995,-0.01917741595379513],[0.4545515107278237,0.21717665390544044,-0.15260828477577748,-0.2245923764396056,-0.5542432327575175,0.5743818622199366]]},{"inputs":[0,0,1,1,0,1],"outputs":[1,1,0,0],"biases":[-0.11165629246191458,0.12960430035800272,0.756694355867503,-0.16764535335107322],"weights":[[-0.29254989830789874,-0.7940086582740629,0.5837786471001203,-0.2074420176627319],[0.5679143174511765,-0.20177551685841227,0.3705121746583627,0.4333364921310954],[-0.3905505001857238,-0.5626491705439709,0.5067687712774014,0.4266711741592184],[0.479502915317537,0.700383032694909,0.17702770251253397,-0.7104107511054953],[0.22689181802686004,0.5657865110916129,-0.45607974680327124,-0.5398949095185589],[0.23932396943072548,0.6305165384030318,-0.15697082135322793,-0.07776639936367737]]}]}]]