<<<<<<< HEAD
[["AI01",null],["AI01",{"levels":[{"inputs":[0,0,0.2653942125132196,0.6236744581475394,0.7243772356693826,0.7242795366487094,0.6231763808921775,0.28964361179956166,0,0,0.00940720598200484,0.030296607154808974,0],"outputs":[0,0,0,1,1,0],"biases":[0.33957606768195125,0.9292559113275174,0.2908263203169965,0.5762282778033274,-0.5264193262903776,-0.07009112616412772],"weights":[[-0.030555538708671115,-0.39375728465984405,0.5721790722552211,0.9561914193920567,0.7833714104373426,-0.473713310913201],[0.7070435263191603,0.6960483200579417,-0.7000474576029236,0.20543560871393662,0.2893758054322646,-0.1547469315676464],[-0.7309391691380007,-0.5884190844977204,-0.47842065606828177,-0.3636545770630564,0.08484645425931614,-0.9828417604644386],[0.39354139072324434,0.8193517555971734,-0.4524566860241124,-0.6643410883701377,0.6071762156970526,-0.2221373274792482],[-0.2104044452141407,-0.42563168795977413,-0.6044599728610165,0.19256231514812283,0.8872161764482827,0.62997906803046],[0.42360081434876307,0.9127901962995977,-0.6953169367580823,0.8894372321116277,0.005740962554164231,-0.07759141227759248],[-0.21736989682493713,-0.35102671275031616,-0.49662912699988127,0.8235959951576346,-0.5242670570682075,-0.03674490864481639],[0.1206104241979653,0.7606177529098495,-0.44585248010939793,0.15957336486132778,0.7338907862536428,-0.1355685822443209],[0.4797198904661566,-0.19547135641771352,0.12581546188232817,-0.21384511678227325,0.40367228451196224,-0.30794797873222857],[-0.387757385720259,0.1614211819893132,0.9006278903223013,-0.060232133004907595,-0.807575565135056,-0.40630861084660497],[-0.9944163971464604,0.17342230442757378,0.05962802576656179,0.36737459766115466,-0.1304387376509104,0.7601971933824747],[0.3131072875705416,-0.6859253929633513,-0.7207075025657188,-0.6055693086784371,-0.1106318532630568,-0.6104272730017102],[0.9543449228387622,-0.11820227360057167,0.29744414698378163,0.06417807841556344,-0.019163530639141335,0.16186365583223639]]},{"inputs":[0,0,0,1,1,0],"outputs":[0,0,0,1],"biases":[0.16939994069525888,-0.15390278700505977,0.3322447122938872,0.05401164306270356],"weights":[[0.6137577342695333,0.16970328631701115,-0.578960077066708,-0.47413494896432873],[0.17361828737940632,-0.7153670926630942,0.8009928062727121,0.013080182735542678],[0.45387455560123335,0.951398076909403,-0.059029523579744225,-0.6713958571449101],[-0.6976302966570676,-0.6616651639734581,-0.36968699346248135,0.940491560390627],[0.8040011656913957,-0.8350326907014258,-0.14352211511396318,-0.33516474287226306],[0.7966208134892634,0.9017584952614919,-0.2987827515678587,-0.8349152211575852]]}]}]]
=======
[["AI01",{"levels":[{"inputs":[0,0,0,0,0,0,0.3570659012135514,0.744394486965889,0.8084619990788634,0.80509020969081,0.7271879119293285,0.17918405596485765,0],"outputs":[1,1,1,0,0,1],"biases":[-0.1556398527048546,-0.4398391215345234,-0.9223627324659729,0.6799814822207906,0.07441934151341023,0.5183226138741888],"weights":[[0.5808929378643239,-0.30285416189104764,0.3461509339113866,-0.40654808420733435,-0.5324731204343687,-0.5207573646103718],[-0.64941616880304,0.810780516183796,0.7640490930805348,0.6003477078185293,-0.8990370910901047,-0.0356946630843038],[-0.7149359397635595,0.043520654088238686,-0.3393373587235806,-0.2897270806976757,-0.8616244002228455,0.6267192096718959],[0.7102959411150445,-0.139497901348415,0.11395102213914665,-0.7076154296602328,0.17545872698273168,0.7444671209209233],[-0.16246411013855377,0.35004951869229517,0.694716244085066,0.044375644575577855,0.8218218576628855,-0.05046770993390037],[-0.7485852981148984,-0.2549474174381374,0.19608995916131322,0.6481716825644939,0.5918191673069533,0.0831095162599329],[-0.8838409634863331,-0.24997403799531126,0.5890103929926256,0.5346063217504002,0.8955974557161972,-0.5601453646007943],[-0.6667511758559024,0.5788099402441995,0.40417845831681687,-0.07013271871358118,-0.8260469855829435,-0.05420706392582764],[-0.006559356688540685,0.026336078969820598,0.9791219245100136,-0.5622195545432374,0.47312938592604104,0.5993385987306183],[0.7888852551210643,0.6403219641472946,0.1565894196069899,-0.19625422068918175,-0.8428323502145698,0.9407321313297796],[0.12682950151969585,-0.4769153197762579,0.26134311010666833,-0.6004841768703248,-0.3872564171950068,-0.7140573618642336],[0.6929308644262888,-0.09206687647598422,-0.16356950291578265,0.051727914920919105,-0.7968888390428264,0.8534849755169422],[-0.2638123827258312,0.4144575652069329,-0.469440779769688,-0.9949569792918878,-0.2463161617453502,-0.6816398425808177]]},{"inputs":[1,1,1,0,0,1],"outputs":[1,1,1,0],"biases":[-0.5330166882614504,-0.10592581575418247,-0.9842759857855801,-0.35261985409543417],"weights":[[0.8598610514936667,-0.09284225824329706,-0.9244369084551098,-0.651613636734028],[-0.9307183791905334,-0.06454126168372243,0.10482762943829993,-0.6675646748821911],[0.16642336795780244,-0.32850696686628833,0.8428073333320136,-0.5551785165523353],[-0.21621329396470346,-0.5047797226589967,-0.5546556988798419,0.35825816888630024],[0.8516284170038819,0.9246091158164602,-0.1768201719741156,0.5781451063395013],[0.31492401200517506,0.7248403416320852,-0.18751667116997028,0.28776434057293265]]}]}],["AI03",{"levels":[{"inputs":[0,0,0,0,0,0,0.5685659012135285,0.8284786351060311,0.8714704586881452,0.8692078552289753,0.8169323456681055,0.44920017813210955,0],"outputs":[1,1,1,0,0,1],"biases":[-0.1556398527048546,-0.4398391215345234,-0.9223627324659729,0.6799814822207906,0.07441934151341023,0.5183226138741888],"weights":[[0.5808929378643239,-0.30285416189104764,0.3461509339113866,-0.40654808420733435,-0.5324731204343687,-0.5207573646103718],[-0.64941616880304,0.810780516183796,0.7640490930805348,0.6003477078185293,-0.8990370910901047,-0.0356946630843038],[-0.7149359397635595,0.043520654088238686,-0.3393373587235806,-0.2897270806976757,-0.8616244002228455,0.6267192096718959],[0.7102959411150445,-0.139497901348415,0.11395102213914665,-0.7076154296602328,0.17545872698273168,0.7444671209209233],[-0.16246411013855377,0.35004951869229517,0.694716244085066,0.044375644575577855,0.8218218576628855,-0.05046770993390037],[-0.7485852981148984,-0.2549474174381374,0.19608995916131322,0.6481716825644939,0.5918191673069533,0.0831095162599329],[-0.8838409634863331,-0.24997403799531126,0.5890103929926256,0.5346063217504002,0.8955974557161972,-0.5601453646007943],[-0.6667511758559024,0.5788099402441995,0.40417845831681687,-0.07013271871358118,-0.8260469855829435,-0.05420706392582764],[-0.006559356688540685,0.026336078969820598,0.9791219245100136,-0.5622195545432374,0.47312938592604104,0.5993385987306183],[0.7888852551210643,0.6403219641472946,0.1565894196069899,-0.19625422068918175,-0.8428323502145698,0.9407321313297796],[0.12682950151969585,-0.4769153197762579,0.26134311010666833,-0.6004841768703248,-0.3872564171950068,-0.7140573618642336],[0.6929308644262888,-0.09206687647598422,-0.16356950291578265,0.051727914920919105,-0.7968888390428264,0.8534849755169422],[-0.2638123827258312,0.4144575652069329,-0.469440779769688,-0.9949569792918878,-0.2463161617453502,-0.6816398425808177]]},{"inputs":[1,1,1,0,0,1],"outputs":[1,1,1,0],"biases":[-0.5330166882614504,-0.10592581575418247,-0.9842759857855801,-0.35261985409543417],"weights":[[0.8598610514936667,-0.09284225824329706,-0.9244369084551098,-0.651613636734028],[-0.9307183791905334,-0.06454126168372243,0.10482762943829993,-0.6675646748821911],[0.16642336795780244,-0.32850696686628833,0.8428073333320136,-0.5551785165523353],[-0.21621329396470346,-0.5047797226589967,-0.5546556988798419,0.35825816888630024],[0.8516284170038819,0.9246091158164602,-0.1768201719741156,0.5781451063395013],[0.31492401200517506,0.7248403416320852,-0.18751667116997028,0.28776434057293265]]}]}],{},{}]
>>>>>>> 9b98ad11904cb297030c6ce05a7d3ecdf69642a9
