[["AI01",{"levels":[{"inputs":[0,0,0,0,0,0,0.3570659012135514,0.744394486965889,0.8084619990788634,0.80509020969081,0.7271879119293285,0.17918405596485765,0],"outputs":[1,1,1,0,0,1],"biases":[-0.1556398527048546,-0.4398391215345234,-0.9223627324659729,0.6799814822207906,0.07441934151341023,0.5183226138741888],"weights":[[0.5808929378643239,-0.30285416189104764,0.3461509339113866,-0.40654808420733435,-0.5324731204343687,-0.5207573646103718],[-0.64941616880304,0.810780516183796,0.7640490930805348,0.6003477078185293,-0.8990370910901047,-0.0356946630843038],[-0.7149359397635595,0.043520654088238686,-0.3393373587235806,-0.2897270806976757,-0.8616244002228455,0.6267192096718959],[0.7102959411150445,-0.139497901348415,0.11395102213914665,-0.7076154296602328,0.17545872698273168,0.7444671209209233],[-0.16246411013855377,0.35004951869229517,0.694716244085066,0.044375644575577855,0.8218218576628855,-0.05046770993390037],[-0.7485852981148984,-0.2549474174381374,0.19608995916131322,0.6481716825644939,0.5918191673069533,0.0831095162599329],[-0.8838409634863331,-0.24997403799531126,0.5890103929926256,0.5346063217504002,0.8955974557161972,-0.5601453646007943],[-0.6667511758559024,0.5788099402441995,0.40417845831681687,-0.07013271871358118,-0.8260469855829435,-0.05420706392582764],[-0.006559356688540685,0.026336078969820598,0.9791219245100136,-0.5622195545432374,0.47312938592604104,0.5993385987306183],[0.7888852551210643,0.6403219641472946,0.1565894196069899,-0.19625422068918175,-0.8428323502145698,0.9407321313297796],[0.12682950151969585,-0.4769153197762579,0.26134311010666833,-0.6004841768703248,-0.3872564171950068,-0.7140573618642336],[0.6929308644262888,-0.09206687647598422,-0.16356950291578265,0.051727914920919105,-0.7968888390428264,0.8534849755169422],[-0.2638123827258312,0.4144575652069329,-0.469440779769688,-0.9949569792918878,-0.2463161617453502,-0.6816398425808177]]},{"inputs":[1,1,1,0,0,1],"outputs":[1,1,1,0],"biases":[-0.5330166882614504,-0.10592581575418247,-0.9842759857855801,-0.35261985409543417],"weights":[[0.8598610514936667,-0.09284225824329706,-0.9244369084551098,-0.651613636734028],[-0.9307183791905334,-0.06454126168372243,0.10482762943829993,-0.6675646748821911],[0.16642336795780244,-0.32850696686628833,0.8428073333320136,-0.5551785165523353],[-0.21621329396470346,-0.5047797226589967,-0.5546556988798419,0.35825816888630024],[0.8516284170038819,0.9246091158164602,-0.1768201719741156,0.5781451063395013],[0.31492401200517506,0.7248403416320852,-0.18751667116997028,0.28776434057293265]]}]}],["AI03",{"levels":[{"inputs":[0,0,0,0,0,0,0.5685659012135285,0.8284786351060311,0.8714704586881452,0.8692078552289753,0.8169323456681055,0.44920017813210955,0],"outputs":[1,1,1,0,0,1],"biases":[-0.1556398527048546,-0.4398391215345234,-0.9223627324659729,0.6799814822207906,0.07441934151341023,0.5183226138741888],"weights":[[0.5808929378643239,-0.30285416189104764,0.3461509339113866,-0.40654808420733435,-0.5324731204343687,-0.5207573646103718],[-0.64941616880304,0.810780516183796,0.7640490930805348,0.6003477078185293,-0.8990370910901047,-0.0356946630843038],[-0.7149359397635595,0.043520654088238686,-0.3393373587235806,-0.2897270806976757,-0.8616244002228455,0.6267192096718959],[0.7102959411150445,-0.139497901348415,0.11395102213914665,-0.7076154296602328,0.17545872698273168,0.7444671209209233],[-0.16246411013855377,0.35004951869229517,0.694716244085066,0.044375644575577855,0.8218218576628855,-0.05046770993390037],[-0.7485852981148984,-0.2549474174381374,0.19608995916131322,0.6481716825644939,0.5918191673069533,0.0831095162599329],[-0.8838409634863331,-0.24997403799531126,0.5890103929926256,0.5346063217504002,0.8955974557161972,-0.5601453646007943],[-0.6667511758559024,0.5788099402441995,0.40417845831681687,-0.07013271871358118,-0.8260469855829435,-0.05420706392582764],[-0.006559356688540685,0.026336078969820598,0.9791219245100136,-0.5622195545432374,0.47312938592604104,0.5993385987306183],[0.7888852551210643,0.6403219641472946,0.1565894196069899,-0.19625422068918175,-0.8428323502145698,0.9407321313297796],[0.12682950151969585,-0.4769153197762579,0.26134311010666833,-0.6004841768703248,-0.3872564171950068,-0.7140573618642336],[0.6929308644262888,-0.09206687647598422,-0.16356950291578265,0.051727914920919105,-0.7968888390428264,0.8534849755169422],[-0.2638123827258312,0.4144575652069329,-0.469440779769688,-0.9949569792918878,-0.2463161617453502,-0.6816398425808177]]},{"inputs":[1,1,1,0,0,1],"outputs":[1,1,1,0],"biases":[-0.5330166882614504,-0.10592581575418247,-0.9842759857855801,-0.35261985409543417],"weights":[[0.8598610514936667,-0.09284225824329706,-0.9244369084551098,-0.651613636734028],[-0.9307183791905334,-0.06454126168372243,0.10482762943829993,-0.6675646748821911],[0.16642336795780244,-0.32850696686628833,0.8428073333320136,-0.5551785165523353],[-0.21621329396470346,-0.5047797226589967,-0.5546556988798419,0.35825816888630024],[0.8516284170038819,0.9246091158164602,-0.1768201719741156,0.5781451063395013],[0.31492401200517506,0.7248403416320852,-0.18751667116997028,0.28776434057293265]]}]}],{},{}]