[["AI03",{"levels":[{"inputs":[0.8236363636361974,0.7963528141401945,0.6472727272723948,0,0,0,0.30000000000016624,0.37784810587456574,0.18170054814231085,0,0.6472727272723948,0.7963528141401945,0.8236363636361974],"outputs":[0,1,0,1,1,1],"biases":[-0.7501117170567762,-0.6954152984808952,-0.4220429798785248,-0.44882293647218985,0.6192280652043762,-0.6822672771337714],"weights":[[-0.7388771530317753,-0.38899179201285694,-0.9150253779017694,0.08229870941828787,0.05806232152973623,0.6739313263868061],[-0.27775191015281564,-0.2185070680336385,-0.9488982567571385,0.42993422366750567,-0.32301785876340805,-0.7739033723500008],[0.31593391499795365,0.1996274414013901,-0.1951209688713802,0.5248566247969082,0.006709371647257267,0.26726266905032725],[-0.6922914930160453,0.9014853147847859,0.20969588946210038,-0.22363637860927676,-0.9621841931951329,0.8955127197873054],[-0.6905382108706357,0.41526421914504175,0.2707486600729174,0.495920100230252,-0.518404453551601,0.0717594734798066],[0.8769832298098765,-0.22810838032839165,0.9413892485982394,-0.8981392772752406,-0.9967329603468387,0.5784897277234999],[0.9252780043137974,0.9433295175964878,-0.42034977219927105,0.3339877354982601,-0.8169651109629825,0.7857085105495929],[-0.805491466910421,-0.20209512641852134,0.884578838936342,-0.2737436779502498,0.08271077959949746,0.3670660188649353],[-0.76552933974948,-0.7154072331505885,-0.1303452651539092,0.08592885896637625,-0.40023978667186766,-0.44501840956754046],[-0.5415381925278133,0.24964902021387259,0.11106065980108992,0.9349379301393212,0.6117135806404406,-0.46213329097226685],[-0.09602904959539815,0.8143572502931575,0.3198724272381783,-0.59491981278999,0.8173473958982806,-0.7268431245398062],[0.7102990304244092,-0.5028825330221256,-0.0800903877627075,0.4579374645964882,0.49486790640224276,-0.63893290237653],[-0.6354582907747011,0.10437716334860792,0.9123354770210748,-0.3797502005501321,0.2401464331140244,0.8591368758392912]]},{"inputs":[0,1,0,1,1,1],"outputs":[0,0,1,0],"biases":[0.6243249200391561,0.9512694524741572,-0.5194764028600973,-0.32921396044984075],"weights":[[0.8746244982846059,0.20601233562857812,-0.013771046353834304,0.5865393126790486],[0.21878580113864698,-0.635843879026349,0.19675926463502957,0.13830569948039884],[-0.6142007764621837,0.5987330493181631,-0.7184853909629427,0.2183164240354616],[-0.5028150379812346,0.4098686079818421,-0.22802641147767533,-0.2013142848239382],[0.9278097023821945,0.8316985317958681,0.2668165551164354,-0.8746894967330943],[-0.17776516538465037,0.22461078125670442,-0.5104444517371975,-0.10030154767158095]]}]}],["AI01",{"levels":[{"inputs":[0.8272727272726934,0.8518666298635476,0.8305956349351483,0.7121212121211556,0,0,0,0,0,0,0,0.6948418364750867,0.8272727272726934],"outputs":[0,1,0,1,0,1],"biases":[-0.7501117170567762,-0.6954152984808952,-0.4220429798785248,-0.44882293647218985,0.6192280652043762,-0.6822672771337714],"weights":[[-0.7388771530317753,-0.38899179201285694,-0.9150253779017694,0.08229870941828787,0.05806232152973623,0.6739313263868061],[-0.27775191015281564,-0.2185070680336385,-0.9488982567571385,0.42993422366750567,-0.32301785876340805,-0.7739033723500008],[0.31593391499795365,0.1996274414013901,-0.1951209688713802,0.5248566247969082,0.006709371647257267,0.26726266905032725],[-0.6922914930160453,0.9014853147847859,0.20969588946210038,-0.22363637860927676,-0.9621841931951329,0.8955127197873054],[-0.6905382108706357,0.41526421914504175,0.2707486600729174,0.495920100230252,-0.518404453551601,0.0717594734798066],[0.8769832298098765,-0.22810838032839165,0.9413892485982394,-0.8981392772752406,-0.9967329603468387,0.5784897277234999],[0.9252780043137974,0.9433295175964878,-0.42034977219927105,0.3339877354982601,-0.8169651109629825,0.7857085105495929],[-0.805491466910421,-0.20209512641852134,0.884578838936342,-0.2737436779502498,0.08271077959949746,0.3670660188649353],[-0.76552933974948,-0.7154072331505885,-0.1303452651539092,0.08592885896637625,-0.40023978667186766,-0.44501840956754046],[-0.5415381925278133,0.24964902021387259,0.11106065980108992,0.9349379301393212,0.6117135806404406,-0.46213329097226685],[-0.09602904959539815,0.8143572502931575,0.3198724272381783,-0.59491981278999,0.8173473958982806,-0.7268431245398062],[0.7102990304244092,-0.5028825330221256,-0.0800903877627075,0.4579374645964882,0.49486790640224276,-0.63893290237653],[-0.6354582907747011,0.10437716334860792,0.9123354770210748,-0.3797502005501321,0.2401464331140244,0.8591368758392912]]},{"inputs":[0,1,0,1,0,1],"outputs":[0,0,0,1],"biases":[0.6243249200391561,0.9512694524741572,-0.5194764028600973,-0.32921396044984075],"weights":[[0.8746244982846059,0.20601233562857812,-0.013771046353834304,0.5865393126790486],[0.21878580113864698,-0.635843879026349,0.19675926463502957,0.13830569948039884],[-0.6142007764621837,0.5987330493181631,-0.7184853909629427,0.2183164240354616],[-0.5028150379812346,0.4098686079818421,-0.22802641147767533,-0.2013142848239382],[0.9278097023821945,0.8316985317958681,0.2668165551164354,-0.8746894967330943],[-0.17776516538465037,0.22461078125670442,-0.5104444517371975,-0.10030154767158095]]}]}],["AI01",{"levels":[{"inputs":[0.20181818181810984,0.07833902482084132,0,0,0,0.8618757786151936,0.9218181818182538,0.9329501587804174,0.9233222347602054,0.8696969696970895,0,0.07833902482084132,0.20181818181810984],"outputs":[1,1,1,1,0,1],"biases":[-0.7501117170567762,-0.6954152984808952,-0.4220429798785248,-0.44882293647218985,0.6192280652043762,-0.6822672771337714],"weights":[[-0.7388771530317753,-0.38899179201285694,-0.9150253779017694,0.08229870941828787,0.05806232152973623,0.6739313263868061],[-0.27775191015281564,-0.2185070680336385,-0.9488982567571385,0.42993422366750567,-0.32301785876340805,-0.7739033723500008],[0.31593391499795365,0.1996274414013901,-0.1951209688713802,0.5248566247969082,0.006709371647257267,0.26726266905032725],[-0.6922914930160453,0.9014853147847859,0.20969588946210038,-0.22363637860927676,-0.9621841931951329,0.8955127197873054],[-0.6905382108706357,0.41526421914504175,0.2707486600729174,0.495920100230252,-0.518404453551601,0.0717594734798066],[0.8769832298098765,-0.22810838032839165,0.9413892485982394,-0.8981392772752406,-0.9967329603468387,0.5784897277234999],[0.9252780043137974,0.9433295175964878,-0.42034977219927105,0.3339877354982601,-0.8169651109629825,0.7857085105495929],[-0.805491466910421,-0.20209512641852134,0.884578838936342,-0.2737436779502498,0.08271077959949746,0.3670660188649353],[-0.76552933974948,-0.7154072331505885,-0.1303452651539092,0.08592885896637625,-0.40023978667186766,-0.44501840956754046],[-0.5415381925278133,0.24964902021387259,0.11106065980108992,0.9349379301393212,0.6117135806404406,-0.46213329097226685],[-0.09602904959539815,0.8143572502931575,0.3198724272381783,-0.59491981278999,0.8173473958982806,-0.7268431245398062],[0.7102990304244092,-0.5028825330221256,-0.0800903877627075,0.4579374645964882,0.49486790640224276,-0.63893290237653],[-0.6354582907747011,0.10437716334860792,0.9123354770210748,-0.3797502005501321,0.2401464331140244,0.8591368758392912]]},{"inputs":[1,1,1,1,0,1],"outputs":[0,0,0,1],"biases":[0.6243249200391561,0.9512694524741572,-0.5194764028600973,-0.32921396044984075],"weights":[[0.8746244982846059,0.20601233562857812,-0.013771046353834304,0.5865393126790486],[0.21878580113864698,-0.635843879026349,0.19675926463502957,0.13830569948039884],[-0.6142007764621837,0.5987330493181631,-0.7184853909629427,0.2183164240354616],[-0.5028150379812346,0.4098686079818421,-0.22802641147767533,-0.2013142848239382],[0.9278097023821945,0.8316985317958681,0.2668165551164354,-0.8746894967330943],[-0.17776516538465037,0.22461078125670442,-0.5104444517371975,-0.10030154767158095]]}]}],["AI01",{"levels":[{"inputs":[0.8236363636361974,0.7963528141401945,0.6472727272723948,0,0,0,0.30000000000016624,0.37784810587456574,0.18170054814231085,0,0.6472727272723948,0.7963528141401945,0.8236363636361974],"outputs":[0,1,0,1,1,1],"biases":[-0.7501117170567762,-0.6954152984808952,-0.4220429798785248,-0.44882293647218985,0.6192280652043762,-0.6822672771337714],"weights":[[-0.7388771530317753,-0.38899179201285694,-0.9150253779017694,0.08229870941828787,0.05806232152973623,0.6739313263868061],[-0.27775191015281564,-0.2185070680336385,-0.9488982567571385,0.42993422366750567,-0.32301785876340805,-0.7739033723500008],[0.31593391499795365,0.1996274414013901,-0.1951209688713802,0.5248566247969082,0.006709371647257267,0.26726266905032725],[-0.6922914930160453,0.9014853147847859,0.20969588946210038,-0.22363637860927676,-0.9621841931951329,0.8955127197873054],[-0.6905382108706357,0.41526421914504175,0.2707486600729174,0.495920100230252,-0.518404453551601,0.0717594734798066],[0.8769832298098765,-0.22810838032839165,0.9413892485982394,-0.8981392772752406,-0.9967329603468387,0.5784897277234999],[0.9252780043137974,0.9433295175964878,-0.42034977219927105,0.3339877354982601,-0.8169651109629825,0.7857085105495929],[-0.805491466910421,-0.20209512641852134,0.884578838936342,-0.2737436779502498,0.08271077959949746,0.3670660188649353],[-0.76552933974948,-0.7154072331505885,-0.1303452651539092,0.08592885896637625,-0.40023978667186766,-0.44501840956754046],[-0.5415381925278133,0.24964902021387259,0.11106065980108992,0.9349379301393212,0.6117135806404406,-0.46213329097226685],[-0.09602904959539815,0.8143572502931575,0.3198724272381783,-0.59491981278999,0.8173473958982806,-0.7268431245398062],[0.7102990304244092,-0.5028825330221256,-0.0800903877627075,0.4579374645964882,0.49486790640224276,-0.63893290237653],[-0.6354582907747011,0.10437716334860792,0.9123354770210748,-0.3797502005501321,0.2401464331140244,0.8591368758392912]]},{"inputs":[0,1,0,1,1,1],"outputs":[0,0,1,0],"biases":[0.6243249200391561,0.9512694524741572,-0.5194764028600973,-0.32921396044984075],"weights":[[0.8746244982846059,0.20601233562857812,-0.013771046353834304,0.5865393126790486],[0.21878580113864698,-0.635843879026349,0.19675926463502957,0.13830569948039884],[-0.6142007764621837,0.5987330493181631,-0.7184853909629427,0.2183164240354616],[-0.5028150379812346,0.4098686079818421,-0.22802641147767533,-0.2013142848239382],[0.9278097023821945,0.8316985317958681,0.2668165551164354,-0.8746894967330943],[-0.17776516538465037,0.22461078125670442,-0.5104444517371975,-0.10030154767158095]]}]}]]